tree
version=v4
num_class=1
num_tree_per_iteration=1
label_index=0
max_feature_idx=13
objective=regression_l1
feature_names=t_mean t_max t_min wind_max solar_rad HDD CDD dow is_we month doy is_hol lag2 lag7
feature_infos=[-2.7999999999999998:34.200000000000003] [-0.5:40.299999999999997] [-6.2999999999999998:26.899999999999999] [4.0999999999999996:33.600000000000001] [0.81000000000000005:30.02] [0:18.300000000000001] [0:12.200000000000003] [0:6] [0:1] [1:12] [1:365] none [25.660065625000001:55.683001041666671] [25.660065625000001:55.88857604166666]
tree_sizes=1071 989 1067 1065 1217 1215 1214 1148 1230 1227 1219 1136 1219 1218 1385 1304 1217 1200 1322 1380 1380 1307 1314 1394 1314 1310 1392 1325 1475 1463 1382 1456 1473 1398 1478 1396 1314 1474 1488 1403 1459 1467 1475 1398 1458 1632 1382 1402 1401 1379 1397 1487 1445 1473 1473 1541 1396 1401 1394 1480 1649 1721 1487 1389 1556 1646 1634 1379 1550 1452 1373 1550 1471 1460 1487 1580 1495 1556 1572 1737 1505 1573 1655 1489 1579 1484 1482 1485 1412 1499 1582 1666 1390 1474 1397 1472 1673 1409 1569 1415 1492 1576 1490 1304 1634 1498 1742 1659 1471 1401 1420 1592 1491 1639 1490 1562 1581 1625 1325 1648 1657 1413 1581 1574 1497 1493 1588 1498 1575 1391 1482 1497 1492 1409 1543 1506 1419 1498 1574 1572 1577 1584 1416 1487 1571 1577 1548 1586 1591 1482 1497 1405 1492 1574 1581 1583 1542 1661 1509 1497 1564 1583 1649 1650 1479 1476 1584 1561 1380 1554 1585 1557 1569 1578 1504 1578 1585 1412 1507 1598 1452 1395 1470 1481 1681 1675 1560 1580 1499 1497 1575 1589 1515 1497 1583 1585 1401 1585 1498 1500 1510 1664 1491 1569 1578 1502 1508 1422 1483 1482 1565 1582 1665 1493 1655 1407 1568 1499 1669 1477 1476 1580 1559 1650 1591 1504 1575 1671 1497 1647 1570 1488 1485 1494 1511 1495 1675 1589 1585 1492 1491 1666 1576 1399 1497 1480 1499 1414 1483 1417 1504 1488 1492 1578 1500 1570 1492 1594 1654 1512 1599 1501 1431 1579 1670 1580 1475 1586 1407 1415 1572 1672 1345 1587 1420 1679 1592 1655 1671 1576 1681 1583 1501 1502 1413 1584 1587 1570 1583 1584 1519 1593 1553 1406 1407 1510 1424 1430 1493 1586 1409 1595 1496 1509 1660 1753 1579 1667 1560 1483 1658 1588 1538 1525 1510 1563 1497 1414 1496 1663 1490 1593 1509 1596 1419 1596 1386 1665 1527 1565 1497 1510 1479 1506 1684 1675 1559 1652 1411 1591 1574 1496 1659 1647 1578 1673 1477 1421 1504 1481 1403 1588 1670 1422 1583 1509 1586 1504 1589 1591 1583 1510 1585 1689 1591 1565 1570 1589 1595 1599 1484 1500 1487 1565 1504 1562 1592 1514 1671 1430 1659 1582 1510 1482 1599 1498 1482 1576 1505 1568 1495 1501 1506 1511 1578 1606 1481 1419 1687 1508 1585 1513 1578 1583 1425 1598 1595 1487 1503 1503 1594 1675 1503 1505 1406 1500 1641 1483 1597 1510 1494 1423 1688 1415 1570 1501 1502 1579 1569 1454 1580 1590 1495 1594 1585 1581 1579 1597 1495 1495 1492 1569 1506 1421 1409 1415 1562 1406 1579 1629 1425 1414 1562 1563 1516 1512 1565 1514 1501 1504 1498 1339 1515 1595 1414 1583 1659 1511 1337 1586 1582 1430 1478 1519 1428 1569 1671 1499 1570 1422 1578 1236 1421 1518 1686 1683 1415 1473 1570 1425 1601 1508 1594 1516 1571 1666 1336 1503 1598 1507

Tree=0
num_leaves=12
num_cat=0
split_feature=13 12 1 12 7 3 13 7 3 1 2
split_gain=217.193 19.7919 13.2216 7.88933 10.0079 5.78857 3.54754 0.934581 0.931397 0.103665 0.346728
threshold=42.401515625000009 42.610051041666672 17.850000000000005 39.411216666666675 4.5000000000000009 15.15 45.407888541666672 2.5000000000000004 12.050000000000002 21.550000000000004 15.750000000000002
decision_type=2 2 2 2 2 2 2 2 2 2 2
left_child=1 3 6 8 5 -5 7 -2 -1 -10 -11
right_child=2 -3 -4 4 -6 -7 -8 -9 9 10 -12
leaf_value=41.431022853851317 41.616884346008298 41.567068214416501 41.510562038421632 41.511040229797366 41.38152240753174 41.455937385559082 41.756282482147213 41.562085399627684 41.388258972167968 41.350116844177244 41.378690338134767
leaf_weight=32 21 20 22 22 30 22 126 20 47 20 23
leaf_count=32 21 20 22 22 30 22 126 20 47 20 23
internal_value=41.507 41.4865 41.5305 41.4836 41.4913 41.5005 41.5334 41.5256 41.4789 41.4773 41.4788
internal_weight=405 216 189 196 74 44 167 41 122 90 43
internal_count=405 216 189 196 74 44 167 41 122 90 43
is_linear=0
shrinkage=1


Tree=1
num_leaves=10
num_cat=0
split_feature=13 12 12 13 5 13 13 13 2
split_gain=227.509 16.781 12.9426 7.26629 5.65914 4.40545 3.19123 1.35589 1.58267
threshold=42.401515625000009 41.039989062500005 40.730073958333342 38.513856770833335 3.2500000000000004 40.416761979166672 41.473673437500004 37.529450520833343 12.250000000000002
decision_type=2 2 2 2 2 2 2 2 2
left_child=2 -2 5 -4 -3 7 -7 -1 -9
right_child=1 4 3 -5 -6 6 -8 8 -10
leaf_value=-0.17456908264160154 -0.00057492542266849959 0.045141458702087502 -0.098678891372680724 0.0038124698638915076 0.22644928951263438 -0.049083567810058563 -0.052512181663513215 -0.055123089694976778 -0.087039840030670168
leaf_weight=62 22 22 30 29 147 21 20 32 34
leaf_count=62 22 22 30 29 147 21 20 32 34
internal_value=0.000501074 0.0246468 -0.0197282 -0.00761421 0.0278533 -0.0239503 -0.0153285 -0.0266979 -0.0236006
internal_weight=419 191 228 59 169 169 41 128 66
internal_count=419 191 228 59 169 169 41 128 66
is_linear=0
shrinkage=0.03


Tree=2
num_leaves=11
num_cat=0
split_feature=13 13 13 10 10 10 7 4 7 2
split_gain=219.571 11.6731 10.0019 9.07991 5.82244 2.29936 2.27327 1.49488 1.32031 0.780133
threshold=42.694179166666672 44.928773437500006 38.513856770833335 247.50000000000003 119.50000000000001 151.50000000000003 2.5000000000000004 12.450000000000001 4.5000000000000009 15.750000000000002
decision_type=2 2 2 2 2 2 2 2 2 2
left_child=2 -2 5 4 -4 -1 9 -3 -7 -6
right_child=1 7 3 -5 6 8 -8 -9 -10 -11
leaf_value=-0.17555666226196279 0.049549157804489138 0.24086251401329042 -0.024199478180408462 0.012808966129302986 -0.054307490409851056 -0.069028990447997957 -0.029444996068954336 0.070134195894241344 -0.16586290310668941 -0.073207904225349479
leaf_weight=47 35 125 26 25 21 38 27 20 39 21
leaf_count=47 35 125 26 25 21 38 27 20 39 21
internal_value=-0.000141476 0.0249861 -0.0186809 -0.0124896 -0.0167192 -0.0246575 -0.0212735 0.0287388 -0.0214008 -0.0256532
internal_weight=424 180 244 120 95 124 69 145 77 42
internal_count=424 180 244 120 95 124 69 145 77 42
is_linear=0
shrinkage=0.03


Tree=3
num_leaves=11
num_cat=0
split_feature=13 12 1 13 3 12 0 4 0 3
split_gain=231.088 14.1247 8.64223 5.3484 5.80318 3.18328 3.09541 1.20569 0.855442 0.409096
threshold=42.617173958333346 42.676071875000012 16.250000000000004 37.529450520833343 12.750000000000002 39.591801562500002 18.050000000000004 10.795000000000002 19.750000000000004 16.550000000000004
decision_type=2 2 2 2 2 2 2 2 2 2
left_child=1 3 7 8 6 9 -5 -2 -1 -6
right_child=2 -3 -4 4 5 -7 -8 -9 -10 -11
leaf_value=-0.15616350832305889 0.23267275996130002 0.052212439760170072 0.033954942552380518 -0.0067641266503716581 -0.060842242113189685 -0.044637994610810236 -0.019706510472021214 0.058150041780166611 -0.14911319437728873 -0.077515001041488743
leaf_weight=53 132 21 28 20 31 31 22 24 26 23
leaf_count=53 132 21 28 20 31 31 22 24 26 23
internal_value=0.00109462 -0.0191546 0.0260728 -0.0215429 -0.0177026 -0.0222092 -0.00855107 0.0288277 -0.0276865 -0.0266174
internal_weight=411 227 184 206 127 85 42 156 79 54
internal_count=411 227 184 206 127 85 42 156 79 54
is_linear=0
shrinkage=0.03


Tree=4
num_leaves=13
num_cat=0
split_feature=13 10 13 10 10 10 13 5 7 0 0 0
split_gain=203.721 10.0531 10.0237 8.76484 7.1742 6.25227 2.94338 1.57616 1.25633 1.25478 1.54427 0.537209
threshold=42.617173958333346 265.50000000000006 45.216711979166668 107.50000000000001 183.50000000000003 203.50000000000003 38.692015625000003 5.1500000000000004 3.5000000000000004 20.250000000000004 14.750000000000002 11.65
decision_type=2 2 2 2 2 2 2 2 2 2 2 2
left_child=1 3 7 -1 8 -6 -7 -2 9 10 -5 -4
right_child=2 -3 11 4 5 6 -8 -9 -10 -11 -12 -13
leaf_value=-0.044559626399099911 0.028622819956957882 0.0049842146272175824 0.22707027415342793 -0.068507162086978893 0.00076772086194687005 -0.11593807463283451 -0.030222531524379939 0.078657611334049943 -0.15646303429825617 -0.10178904056643734 -0.071686392355870432 0.102987939275671
leaf_weight=21 20 26 114 20 20 24 24 20 52 20 25 22
leaf_count=21 20 26 114 20 20 24 24 20 52 20 25 22
internal_value=0.000882137 -0.0175786 0.0252129 -0.0197962 -0.0218801 -0.0140969 -0.0199584 0.0119701 -0.0263877 -0.0235023 -0.0206208 0.0290963
internal_weight=408 232 176 206 185 68 48 40 117 65 45 136
internal_count=408 232 176 206 185 68 48 40 117 65 45 136
is_linear=0
shrinkage=0.03


Tree=5
num_leaves=13
num_cat=0
split_feature=12 13 7 12 3 0 3 12 12 0 3 0
split_gain=202.481 30.2418 8.62264 11.129 7.72591 5.2237 2.12667 1.34266 0.646652 0.755174 0.0850693 0.0566925
threshold=43.891845833333342 42.281597395833344 4.5000000000000009 39.137066666666676 15.15 12.050000000000002 12.050000000000002 45.352022395833337 35.368054166666674 17.650000000000002 20.950000000000003 19.750000000000004
decision_type=2 2 2 2 2 2 2 2 2 2 2 2
left_child=1 2 3 6 -5 7 -1 -2 -8 -10 -9 -4
right_child=5 -3 11 4 -6 -7 8 10 9 -11 -12 -13
leaf_value=-0.037774567493181761 0.073275773953352899 0.02688170525980773 -0.16051020306386957 0.011203680849552242 -0.048308377617846253 0.086079074430475827 -0.13305529823072226 0.2150543657274091 -0.04685622434038958 -0.080579878274021688 0.20444417757884117 -0.14989742948356741
leaf_weight=29 20 37 50 24 26 20 21 108 22 22 20 20
leaf_count=29 20 37 50 24 26 20 21 108 22 22 20 20
internal_value=0.000930565 -0.016129 -0.0204577 -0.0162387 -0.00479042 0.0264128 -0.0223167 0.0283592 -0.0253456 -0.0231293 0.0295082 -0.0291013
internal_weight=419 251 214 144 50 168 94 148 65 44 128 70
internal_count=419 251 214 144 50 168 94 148 65 44 128 70
is_linear=0
shrinkage=0.03


Tree=6
num_leaves=13
num_cat=0
split_feature=12 13 12 12 7 7 12 7 12 9 4 0
split_gain=195.796 18.3632 17.9885 14.0695 12.6509 5.0665 6.48494 2.90085 2.65246 1.17314 1.16736 0.0836754
threshold=42.489764583333347 41.175372395833342 39.55562604166667 44.946851562500008 3.5000000000000004 3.5000000000000004 39.411216666666675 1.5000000000000002 35.489118229166671 6.5000000000000009 10.795000000000002 10.15
decision_type=2 2 2 2 2 2 2 2 2 2 2 2
left_child=1 5 -3 4 -2 6 7 8 -1 -7 11 -5
right_child=3 2 -4 10 -6 9 -8 -9 -10 -11 -12 -13
leaf_value=-0.10238691050126295 0.088294584503089302 -0.038274747882744757 0.010867570424065604 0.21935348625094811 -0.026452605038023193 -0.17426204100893308 -0.0057508496033098306 -0.07072031602008795 -0.029303790440367121 -0.083930360254210926 0.072048293562199772 0.10589514058127544
leaf_weight=22 28 30 26 103 23 53 22 24 24 32 22 20
leaf_count=22 28 30 26 103 23 53 22 24 24 32 22 20
internal_value=0.00146819 -0.0171171 -0.00213904 0.0235594 0.00998043 -0.0218521 -0.0169381 -0.021398 -0.0169197 -0.0271445 0.0283253 0.0294882
internal_weight=429 233 56 196 51 177 92 70 46 85 145 123
internal_count=429 233 56 196 51 177 92 70 46 85 145 123
is_linear=0
shrinkage=0.03


Tree=7
num_leaves=12
num_cat=0
split_feature=12 13 12 12 7 12 3 13 4 12 1
split_gain=210.337 16.691 18.6092 11.5825 3.98511 9.05787 4.59867 1.67298 0.503362 0.421809 0.083383
threshold=42.715885937500005 41.077160416666679 39.55562604166667 44.724529687500009 4.5000000000000009 40.02747187500001 12.450000000000001 44.928773437500006 23.480000000000004 37.516084375000013 13.050000000000002
decision_type=2 2 2 2 2 2 2 2 2 2 2
left_child=1 4 -3 -2 5 6 -1 -5 -6 -8 -9
right_child=3 2 -4 7 8 -7 9 10 -10 -11 -12
leaf_value=-0.04109484022528747 0.057473265186872874 -0.045856829148492859 0.010541543311343559 0.075644161265086038 -0.15347823332930544 -0.0018979061669107721 -0.094196363520620954 0.21953056064901544 -0.14490649655573534 -0.058535745851621496 0.10353310406319519
leaf_weight=29 29 33 32 27 52 21 40 102 20 21 20
leaf_count=29 29 33 32 27 52 21 40 102 20 21 20
internal_value=-0.000281624 -0.0181378 -0.00506912 0.0245929 -0.0227744 -0.0191719 -0.0233074 0.0279678 -0.028294 -0.0279869 0.029484
internal_weight=426 248 65 178 183 111 90 149 72 61 122
internal_count=426 248 65 178 183 111 90 149 72 61 122
is_linear=0
shrinkage=0.03


Tree=8
num_leaves=13
num_cat=0
split_feature=12 13 13 3 12 10 2 12 4 3 13 1
split_gain=201.792 20.1053 16.96 15.1152 8.39648 3.42759 2.87487 2.73518 0.61468 0.401689 0.670715 0.205722
threshold=42.562102966485519 40.416761979166672 44.928773437500006 17.150000000000002 39.55562604166667 241.50000000000003 10.550000000000002 40.855394270833337 10.905000000000003 15.250000000000002 38.427445312500005 24.950000000000003
decision_type=2 2 2 2 2 2 2 2 2 2 2 2
left_child=1 5 3 -2 6 7 -3 9 -4 10 11 -1
right_child=2 4 8 -5 -6 -7 -8 -9 -10 -11 -12 -13
leaf_value=-0.14037958503979681 0.09634905911419317 -0.009764275788378924 0.20549310955830485 -0.035024467020829772 0.0027923768164090745 -0.025113427134581343 -0.046559977032503495 -0.071285567320183027 0.065040889784650738 -0.11498395135703617 -0.060395121161976983 -0.104897262879022
leaf_weight=27 37 22 118 23 33 20 25 27 20 41 26 20
leaf_count=27 37 22 118 23 33 20 25 27 20 41 26 20
internal_value=0.00088818 -0.0175446 0.0233216 0.00998336 -0.00524345 -0.0236499 -0.0133758 -0.0253012 0.0291093 -0.0273444 -0.025855 -0.0235669
internal_weight=439 241 198 60 80 161 47 141 138 114 73 47
internal_count=439 241 198 60 80 161 47 141 138 114 73 47
is_linear=0
shrinkage=0.03


Tree=9
num_leaves=13
num_cat=0
split_feature=13 13 10 4 3 10 0 7 7 10 0 1
split_gain=173.095 19.0945 13.0883 12.7998 11.0701 6.47554 4.89028 2.89612 2.50733 1.55716 0.631023 0.0518828
threshold=42.617173958333346 38.513856770833335 247.50000000000003 10.470000000000001 12.450000000000001 109.50000000000001 15.850000000000003 2.5000000000000004 1.5000000000000002 183.50000000000003 9.7500000000000018 19.950000000000003
decision_type=2 2 2 2 2 2 2 2 2 2 2 2
left_child=1 8 5 10 -5 -3 -7 -8 -1 11 -2 -10
right_child=3 2 -4 4 -6 6 7 -9 9 -11 -12 -13
leaf_value=-0.055247377703407707 0.2028547523203594 0.0052372780839037604 0.028014284096807136 0.069705883094071552 -0.026332490831863637 -0.057316122610510015 -0.045684174929181226 -0.022296909887379143 -0.1100924131654968 -0.07170265312313838 0.072751362542991624 -0.14439532460566654
leaf_weight=25 88 20 24 24 25 24 29 25 20 33 36 45
leaf_count=25 88 20 24 24 25 24 29 25 20 33 36 45
internal_value=0.000430519 -0.0157895 -0.00737101 0.0233969 0.010387 -0.0122324 -0.0161332 -0.0110906 -0.0241267 -0.0262997 0.0285254 -0.0290323
internal_weight=418 245 122 173 49 98 78 54 123 98 124 65
internal_count=418 245 122 173 49 98 78 54 123 98 124 65
is_linear=0
shrinkage=0.03


Tree=10
num_leaves=13
num_cat=0
split_feature=12 13 0 12 10 10 7 0 13 0 2 0
split_gain=154.053 17.6934 14.4595 8.64389 8.90453 7.68492 4.88528 8.02968 2.29721 1.50212 1.40387 0.220623
threshold=42.489764583333347 37.359813020833343 12.15 40.730073958333342 235.50000000000003 109.50000000000001 4.5000000000000009 7.7500000000000009 40.656699479166669 19.750000000000004 15.250000000000002 9.1500000000000004
decision_type=2 2 2 2 2 2 2 2 2 2 2 2
left_child=1 9 6 4 5 -3 11 -8 10 -1 -7 -2
right_child=2 3 -4 -5 -6 8 7 -9 -10 -11 -12 -13
leaf_value=-0.13675102011489826 0.19405005437821438 0.00014081985413653795 0.0073907585737179454 0.0032140252965110251 0.0029220631119547136 -0.058637375198996401 0.17352957326859519 0.025511395217270944 -0.032438663825182699 -0.12869055980178429 -0.084688827076027123 0.10805799697142723
leaf_weight=53 71 20 31 29 23 30 20 20 30 27 24 35
leaf_count=53 71 20 31 29 23 30 20 20 30 27 24 35
internal_value=0.000363108 -0.0155019 0.0215133 -0.00960922 -0.0129819 -0.0167147 0.025462 0.0164589 -0.0206897 -0.0269663 -0.0243993 0.0288407
internal_weight=413 236 177 156 127 104 146 40 84 80 54 106
internal_count=413 236 177 156 127 104 146 40 84 80 54 106
is_linear=0
shrinkage=0.03


Tree=11
num_leaves=12
num_cat=0
split_feature=12 5 7 12 12 10 3 12 7 5 10
split_gain=165.1 16.0464 13.9043 12.3711 5.5122 4.80746 3.71829 3.55657 5.72112 0.554448 0.303581
threshold=42.489764583333347 3.2500000000000004 4.5000000000000009 39.411216666666675 45.352022395833337 223.50000000000003 15.350000000000003 35.368054166666674 1.5000000000000002 5.4500000000000011 183.50000000000003
decision_type=2 2 2 2 2 2 2 2 2 2 2
left_child=2 -2 3 5 -3 7 -5 -1 -9 -6 -4
right_child=1 4 10 6 9 -7 -8 8 -10 -11 -12
leaf_value=-0.11580543246227669 0.027546316758049298 0.047192709077095038 -0.15909918031419376 0.0024500628659433941 0.049494234165550065 -0.024341126934111373 -0.046054044346024267 -0.021140394627010579 -0.051759815215860913 0.18822855274686787 -0.13158030400421153
leaf_weight=33 33 38 38 35 21 21 21 27 32 97 25
leaf_count=33 33 38 38 35 21 21 21 27 32 97 25
internal_value=0.000926146 0.0217345 -0.0160276 -0.0115316 0.0257527 -0.0172414 0 -0.0201954 -0.015736 0.0289585 -0.0280507
internal_weight=421 189 232 169 156 113 56 92 59 118 63
internal_count=421 189 232 169 156 113 56 92 59 118 63
is_linear=0
shrinkage=0.03


Tree=12
num_leaves=13
num_cat=0
split_feature=12 13 0 12 3 0 8 0 12 13 3 3
split_gain=157.863 21.2712 14.9737 5.81074 4.72311 3.45999 3.11732 6.0066 2.58706 0.866356 0.586472 0.0474695
threshold=42.489764583333347 38.562160416666678 12.15 39.137066666666676 13.350000000000003 15.850000000000003 1.0000000180025095e-35 8.0500000000000025 40.243796354166669 37.529450520833343 21.250000000000004 12.950000000000001
decision_type=2 2 2 2 2 2 2 2 2 2 2 2
left_child=1 8 6 5 -5 -3 10 -8 9 11 -2 -1
right_child=2 3 -4 4 -6 -7 7 -9 -10 -11 -12 -13
leaf_value=-0.083934550123101914 0.15244402374014535 -0.036242478046441491 0.0063426463137648877 0.0041901413896704293 -0.03411149834471381 -0.018814929612433529 0.16650427165732068 0.040358157624962913 -0.05557367725886362 -0.050197815339589835 0.14012231388207216 -0.13410253317879714
leaf_weight=20 92 33 25 27 27 37 24 22 20 22 20 41
leaf_count=20 92 33 25 27 27 37 24 22 20 22 20 41
internal_value=0.00204828 -0.0146631 0.0227744 -0.00628525 0.00110906 -0.0119829 0.026186 0.0195228 -0.0247333 -0.0270758 0.0289028 -0.0289689
internal_weight=410 227 183 124 54 70 158 46 103 83 112 61
internal_count=410 227 183 124 54 70 158 46 103 83 112 61
is_linear=0
shrinkage=0.03


Tree=13
num_leaves=13
num_cat=0
split_feature=12 12 13 4 1 12 9 12 1 1 0 0
split_gain=170.276 18.486 17.1184 8.19282 6.7498 5.97459 4.20992 2.78321 2.47547 1.54341 0.426641 0.0474695
threshold=42.489764583333347 45.153101562500005 38.562160416666678 19.400000000000002 15.15 38.778780729166677 5.5000000000000009 40.855394270833337 12.350000000000003 14.450000000000001 19.750000000000004 14.450000000000001
decision_type=2 2 2 2 2 2 2 2 2 2 2 2
left_child=2 4 7 5 -2 -4 -5 10 -3 -10 11 -1
right_child=1 8 3 6 -6 -7 -8 -9 9 -11 -12 -13
leaf_value=-0.12767220737166207 0.061958983422291315 0.17883097677061677 -0.036443463641706336 -0.044416352611637927 -0.0021501731939947886 0.0074815230214677437 -0.033260913099487366 -0.059807568793374948 0.079743416463763456 0.070909543064900646 -0.082450080341395338 -0.12156314307724038
leaf_weight=20 24 96 34 28 26 32 29 20 20 20 32 41
leaf_count=20 24 96 34 28 26 32 29 20 20 20 32 41
internal_value=0.000142146 0.0216013 -0.0167726 -0.00901706 0.00598802 -0.00181543 -0.017338 -0.0251989 0.0273328 0.0209476 -0.0273899 -0.0289689
internal_weight=422 186 236 123 50 66 57 113 136 40 93 61
internal_count=422 186 236 123 50 66 57 113 136 40 93 61
is_linear=0
shrinkage=0.03


Tree=14
num_leaves=15
num_cat=0
split_feature=5 4 7 10 1 7 10 3 10 3 10 3 0 0
split_gain=128.605 22.5975 14.5272 11.6112 11.0467 9.73766 5.10591 2.86216 1.85274 1.83273 1.05859 1.01263 0.0771588 0.0198179
threshold=3.2500000000000004 14.670000000000002 4.5000000000000009 185.50000000000003 12.350000000000003 3.5000000000000004 119.50000000000001 15.950000000000001 235.50000000000003 17.250000000000004 183.50000000000003 12.65 8.3500000000000032 15.750000000000002
decision_type=2 2 2 2 2 2 2 2 2 2 2 2 2 2
left_child=2 4 3 6 12 -6 -1 8 -5 11 13 -8 -2 -4
right_child=1 -3 10 7 5 -7 9 -9 -10 -11 -12 -13 -14 -15
leaf_value=-0.011127728598743331 0.17466315668991028 -0.0049129917923538356 -0.16487339763806461 -0.0016688474487129667 0.085742274357306983 -0.0014528995815803469 -0.043851136579624424 -0.02941722062444601 0.014299261035734964 -0.063203904247015566 -0.11548836919373912 -0.097575710504237023 0.15963874022108698 -0.15108758185698548
leaf_weight=23 84 29 20 23 34 22 21 20 22 21 26 26 20 24
leaf_count=23 84 29 20 23 34 22 21 20 22 21 26 26 20 24
internal_value=0.000939533 0.0191962 -0.0143299 -0.00922486 0.0236102 0.0128342 -0.0161361 0.000460829 0.00465632 -0.0202643 -0.0256776 -0.0235669 0.0293948 -0.0285714
internal_weight=415 189 226 156 160 56 91 65 45 68 70 47 104 44
internal_count=415 189 226 156 160 56 91 65 45 68 70 47 104 44
is_linear=0
shrinkage=0.03


Tree=15
num_leaves=14
num_cat=0
split_feature=12 10 7 10 12 7 12 12 0 0 12 0 12
split_gain=163.686 24.0476 16.9296 15.7985 7.79302 9.24674 7.62814 3.77205 2.1506 1.21243 0.520981 0.509441 0.473032
threshold=44.279099479166675 91.500000000000014 4.5000000000000009 185.50000000000003 46.778845833333342 3.5000000000000004 38.778780729166677 36.991154166666675 14.350000000000003 15.850000000000003 34.904709375000003 9.7500000000000018 41.417138541666674
decision_type=2 2 2 2 2 2 2 2 2 2 2 2 2
left_child=1 -1 3 7 5 -2 -5 10 -9 -8 -3 -6 -4
right_child=4 2 12 6 11 -7 9 8 -10 -11 -12 -13 -14
leaf_value=0.039493829587472398 0.071374689448929801 -0.085812751502149426 -0.12989177673931165 -0.029081858360700465 0.17692537191030672 0.0060593492524062143 0.064382804862049947 -0.057884699485913765 -0.0292320820467976 0.004658473021687079 -0.04829646604737494 0.15419461200774681 -0.085818877199109869
leaf_weight=30 29 27 54 25 89 22 21 25 37 22 20 22 21
leaf_count=30 29 27 54 25 89 22 21 25 37 22 20 22 21
internal_value=0.000405314 -0.0133995 -0.0164221 -0.0113495 0.0244294 0.0146771 0 -0.0184235 -0.0135266 0.00765661 -0.0248408 0.0288929 -0.0283622
internal_weight=444 282 252 177 162 51 68 109 62 43 47 111 75
internal_count=444 282 252 177 162 51 68 109 62 43 47 111 75
is_linear=0
shrinkage=0.03


Tree=16
num_leaves=13
num_cat=0
split_feature=13 13 12 3 10 12 3 12 2 10 3 2
split_gain=156.845 28.7398 18.9604 15.9511 9.34268 5.88793 3.35237 2.30342 1.33461 0.718371 0.423215 0.685114
threshold=44.333494791666674 38.343090625000009 40.730073958333342 17.150000000000002 235.50000000000003 45.153101562500005 12.450000000000001 41.486610416666672 7.8500000000000005 151.50000000000003 15.250000000000002 15.15
decision_type=2 2 2 2 2 2 2 2 2 2 2 2
left_child=1 7 4 -4 6 -2 -3 10 -7 -8 11 -1
right_child=5 2 3 -5 -6 8 9 -9 -10 -11 -12 -13
leaf_value=-0.1172192059737432 0.042715637836710625 -0.02698850518088804 0.032892167315801399 -0.04450753022173963 0.0056658647439923014 0.17558866062194284 -0.049400799160389114 -0.045574555315746321 0.094872494107429262 -0.045140541560636932 -0.10097397803933632 -0.094038654586686685
leaf_weight=32 34 31 37 25 21 92 23 22 21 23 37 20
leaf_count=32 34 31 37 25 21 92 23 22 21 23 37 20
internal_value=0.000143506 -0.0133899 -0.00524672 0.00772947 -0.0134557 0.025085 -0.0182879 -0.0251125 0.028382 -0.0234273 -0.0272727 -0.0253359
internal_weight=418 271 160 62 98 147 77 111 113 46 89 52
internal_count=418 271 160 62 98 147 77 111 113 46 89 52
is_linear=0
shrinkage=0.03


Tree=17
num_leaves=13
num_cat=0
split_feature=13 3 5 10 10 3 12 13 3 3 2 0
split_gain=149.318 24.6872 16.8942 8.35111 9.34966 6.70822 6.52824 4.2434 3.65762 2.02809 1.26605 1.20486
threshold=44.928773437500006 9.0500000000000025 3.2500000000000004 183.50000000000003 205.50000000000003 17.050000000000004 45.153101562500005 39.081942708333344 15.65 15.15 7.5500000000000007 14.750000000000002
decision_type=2 2 2 2 2 2 2 2 2 2 2 2
left_child=1 -1 3 7 -5 -4 -2 11 -6 -9 -8 -3
right_child=6 2 5 4 8 -7 10 9 -10 -11 -12 -13
leaf_value=0.042650132513099806 0.041534037555717093 -0.10666753137668188 0.021548607283378089 0.0054724126831755624 -0.019835680506301117 -0.0283793785521992 0.16558407333419758 -0.046795722774934628 -0.075327419121134581 -0.044885451518069032 0.1606854979892689 -0.10565322522867233
leaf_weight=28 32 21 35 22 32 27 95 23 22 20 22 60
leaf_count=28 32 21 35 22 32 27 95 23 22 20 22 60
internal_value=0.000751537 -0.011789 -0.0146509 -0.0188906 -0.0110381 -0.000966184 0.0251509 -0.0236906 -0.0177449 -0.0160093 0.0284372 -0.0277435
internal_weight=439 290 262 200 76 62 149 124 54 43 117 81
internal_count=439 290 262 200 76 62 149 124 54 43 117 81
is_linear=0
shrinkage=0.03


Tree=18
num_leaves=14
num_cat=0
split_feature=12 13 10 12 3 1 3 1 13 7 4 4 1
split_gain=136.625 24.4288 8.66775 5.84349 4.87339 4.71559 4.50765 4.01739 3.65676 2.34597 1.86679 0.547799 0.0600737
threshold=44.865471875000004 42.281597395833344 235.50000000000003 40.795423437500013 17.050000000000004 12.350000000000003 17.250000000000004 15.750000000000002 40.416761979166672 1.0000000180025095e-35 25.695000000000004 6.6150000000000011 18.650000000000002
decision_type=2 2 2 2 2 2 2 2 2 2 2 2 2
left_child=1 2 3 8 -4 11 -7 -3 9 -1 12 -2 -11
right_child=5 7 4 -5 -6 6 -8 -9 -10 10 -12 -13 -14
leaf_value=-0.042537036046174564 0.18406445555142462 0.063132726130434871 0.0028869713991331735 -0.044894879719514405 -0.057321330126409255 0.087205754344528333 0.023606268309458649 -0.0048644267012460671 -0.038865831997927314 -0.048545794087416744 -0.059753508847873178 0.07918635716050712 -0.097974733084846333
leaf_weight=21 69 23 20 34 20 25 20 38 23 20 22 20 54
leaf_count=21 69 23 20 34 20 25 20 38 23 20 22 20 54
internal_value=-0.000219995 -0.0123228 -0.0170948 -0.0199885 -0.00448878 0.0246085 0.0166297 0.00441899 -0.0226981 -0.0248506 -0.026847 0.0286195 -0.0291498
internal_weight=409 275 214 174 40 134 45 61 140 117 96 89 74
internal_count=409 275 214 174 40 134 45 61 140 117 96 89 74
is_linear=0
shrinkage=0.03


Tree=19
num_leaves=15
num_cat=0
split_feature=12 13 9 12 9 7 0 0 7 2 12 1 0 1
split_gain=148.169 25.473 10.1828 9.36071 6.48017 5.24345 4.91269 8.0535 4.64325 3.24682 1.98575 0.849478 0.0750289 0.059263
threshold=44.279099479166675 38.513856770833335 3.5000000000000004 46.778845833333342 6.5000000000000009 1.5000000000000002 14.450000000000001 19.600000000000005 3.5000000000000004 10.15 41.195136458333344 22.050000000000004 9.6500000000000004 25.950000000000003
decision_type=2 2 2 2 2 2 2 2 2 2 2 2 2 2
left_child=1 5 -3 8 6 -1 -4 -8 -2 -6 13 -11 -5 -7
right_child=3 2 4 12 9 10 7 -9 -10 11 -12 -13 -14 -15
leaf_value=-0.030047572676188884 0.053476333080235174 0.042087115857051917 -0.040716811726102829 0.15509461746762909 0.012081631762932083 -0.10219410130799729 0.0024346629789491914 -0.053970943339603748 0.018786283052367486 -0.029046878228066147 -0.04932528833782051 -0.0058210995163948094 0.14353403481013494 -0.085000224756182796
leaf_weight=26 25 20 29 79 20 53 20 20 26 21 21 21 20 20
leaf_count=26 25 20 29 79 20 53 20 20 26 21 21 21 20 20
internal_value=7.1242e-05 -0.0131686 -0.0049636 0.023984 -0.00800915 -0.0234804 -0.0143271 -0.0074813 0.0135029 -0.000966184 -0.02678 -0.00570071 0.0293643 -0.0291382
internal_weight=421 271 151 150 131 120 69 40 51 62 94 42 99 73
internal_count=421 271 151 150 131 120 69 40 51 62 94 42 99 73
is_linear=0
shrinkage=0.03


Tree=20
num_leaves=15
num_cat=0
split_feature=13 12 7 13 3 1 1 1 9 3 12 7 12 1
split_gain=138.174 22.9952 14.5842 11.8126 10.5849 6.55951 4.35319 4.33396 3.29543 4.5583 3.03885 1.31479 0.480216 0.0370774
threshold=44.928773437500006 40.730073958333342 4.5000000000000009 38.343090625000009 17.150000000000002 12.350000000000003 28.850000000000005 16.650000000000002 5.5000000000000009 15.65 46.778845833333342 2.5000000000000004 48.286132291666675 25.650000000000002
decision_type=2 2 2 2 2 2 2 2 2 2 2 2 2 2
left_child=1 3 4 11 -3 12 8 -4 -5 -10 -7 -1 -2 -13
right_child=5 2 7 6 -6 10 -8 -9 9 -11 -12 13 -14 -15
leaf_value=-0.04692136201321901 0.067690617621851065 0.073339133440915125 -0.013126183021987784 -0.037986830030263229 -0.0041340027425611223 0.02907694608336495 -0.059877506190652768 -0.085580201982140808 0.010333370015189941 -0.052018419490832031 0.1301665425424236 -0.099565436774447028 0.1777380540281272 -0.092351286355810122
leaf_weight=26 22 30 20 36 22 28 20 23 23 21 20 40 71 21
leaf_count=26 22 30 20 36 22 28 20 23 23 21 20 40 71 21
internal_value=-0.000212716 -0.0123361 -0.000315457 -0.0184393 0.0103647 0.0240255 -0.0113886 -0.0132251 -0.0082397 -0.00272109 0.0149688 -0.0265212 0.0286788 -0.0289689
internal_weight=423 282 95 187 52 141 100 43 80 44 48 87 93 61
internal_count=423 282 95 187 52 141 100 43 80 44 48 87 93 61
is_linear=0
shrinkage=0.03


Tree=21
num_leaves=14
num_cat=0
split_feature=12 13 12 3 7 9 12 3 10 4 2 10 12
split_gain=133.37 22.679 15.8928 15.2841 9.82413 7.43305 10.2213 4.78259 3.74336 3.56414 1.1788 1.09493 0.0573394
threshold=42.489764583333347 38.562160416666678 46.778845833333342 11.950000000000001 3.5000000000000004 6.5000000000000009 36.991154166666675 12.750000000000002 183.50000000000003 19.515000000000004 7.0500000000000007 129.50000000000003 49.071519270833335
decision_type=2 2 2 2 2 2 2 2 2 2 2 2 2
left_child=1 8 3 -2 -5 6 -3 -7 11 -8 12 -1 -4
right_child=2 5 10 4 -6 7 9 -9 -10 -11 -12 -13 -14
leaf_value=-0.11679287582663338 0.077772436031317865 -0.046902604370934992 0.079875530761228927 0.043335807057164499 -0.024468183823197088 0.0050266685012146433 0.0040245878991978399 -0.018010659177405727 -0.044381108460990505 -0.036609693604861701 0.1452453138478306 -0.094007311299429963 0.17250071147450746
leaf_weight=22 25 24 21 28 32 20 22 32 33 28 20 54 64
leaf_count=22 25 24 21 28 32 20 22 32 33 28 20 54 64
internal_value=0.00119972 -0.013909 0.0198843 0.0102233 0.00199667 -0.00523394 -0.011336 0.00345489 -0.023923 -0.00359281 0.0276879 -0.0275953 0.0292597
internal_weight=425 235 190 85 60 126 74 52 109 50 105 76 85
internal_count=425 235 190 85 60 126 74 52 109 50 105 76 85
is_linear=0
shrinkage=0.03


Tree=22
num_leaves=14
num_cat=0
split_feature=12 13 9 12 9 12 3 0 3 13 12 3 12
split_gain=136.361 20.7471 9.68497 8.67688 6.54382 4.85382 5.00414 4.63278 4.14296 1.71827 3.30717 1.21593 0.0651893
threshold=44.382977604166676 38.513856770833335 3.5000000000000004 41.486610416666672 5.5000000000000009 46.674227604166681 13.450000000000001 14.450000000000001 14.250000000000002 35.038192187500009 38.378904687500004 18.850000000000005 48.546927604166676
decision_type=2 2 2 2 2 2 2 2 2 2 2 2 2
left_child=1 3 -3 9 7 6 -2 -4 -6 -1 -11 12 -7
right_child=5 2 4 -5 8 11 -8 -9 -10 10 -12 -13 -14
leaf_value=-0.10491050259320832 0.0572302483001264 0.044946017735102255 -0.041477168181635306 -0.030180249496003383 0.0019776510196032149 0.07488366297824825 0.018789833272443487 -0.0069714813943025783 -0.042982737677341662 -0.064401624611815575 -0.071024012155495336 0.14315831468071988 0.17113814406638544
leaf_weight=34 20 25 32 23 39 20 26 24 39 38 25 30 61
leaf_count=34 20 25 32 23 39 20 26 24 39 38 25 30 61
internal_value=0.00151341 -0.0110713 -0.00395977 -0.0204829 -0.00715884 0.0238701 0.0156182 -0.0149733 -0.00153649 -0.0244078 -0.0213946 0.0272727 0.0292232
internal_weight=436 279 159 120 134 157 46 56 78 97 63 111 81
internal_count=436 279 159 120 134 157 46 56 78 97 63 111 81
is_linear=0
shrinkage=0.03


Tree=23
num_leaves=15
num_cat=0
split_feature=12 13 12 10 12 10 7 5 13 7 13 5 12 7
split_gain=140.401 23.3033 13.8486 12.6774 7.26816 5.49414 5.33199 4.99666 3.9532 1.68552 1.15487 1.01129 0.474299 0.291256
threshold=44.08501458333334 37.359813020833343 40.730073958333342 231.50000000000003 46.778845833333342 111.50000000000001 3.5000000000000004 3.5500000000000003 40.656699479166669 3.5000000000000004 38.830695833333344 5.7500000000000009 39.881215625000003 4.5000000000000009
decision_type=2 2 2 2 2 2 2 2 2 2 2 2 2 2
left_child=1 9 3 5 6 -3 -2 -4 10 -1 -7 -6 -11 -13
right_child=4 2 7 -5 11 8 -8 -9 -10 12 -12 13 -14 -15
leaf_value=-0.030758136292128205 0.057733606866336475 -0.015106925400056212 -0.0027068497813962722 0.010432279266975755 0.093447384592958288 -0.076177461577881578 0.013033522192411055 0.025742457179136549 -0.032687354608721575 -0.12837297190153968 -0.045870253074945425 0.1466672298981046 -0.076057673543767343 0.11269184988970053
leaf_weight=20 26 23 35 24 20 26 25 20 25 44 26 61 20 29
leaf_count=20 26 23 35 24 20 26 25 20 25 44 26 61 20 29
internal_value=0.000848856 -0.0126568 -0.00653266 -0.012087 0.022905 -0.0167832 0.0135029 0.00598911 -0.0206226 -0.0256837 -0.0253359 0.027248 -0.0280811 0.0286349
internal_weight=424 263 179 124 161 100 51 55 77 84 52 110 64 90
internal_count=424 263 179 124 161 100 51 55 77 84 52 110 64 90
is_linear=0
shrinkage=0.03


Tree=24
num_leaves=14
num_cat=0
split_feature=12 13 9 12 3 13 1 3 2 12 12 13 12
split_gain=133.414 27.6799 10.005 8.2468 4.95091 4.62885 3.96022 3.82329 3.17758 3.02082 0.489612 0.32301 0.846365
threshold=44.865471875000004 39.869825000000013 3.5000000000000004 41.486610416666672 18.550000000000004 37.529450520833343 11.950000000000001 12.550000000000002 12.950000000000001 38.378904687500004 48.286132291666675 35.038192187500009 38.541283854166672
decision_type=2 2 2 2 2 2 2 2 2 2 2 2 2
left_child=1 3 -3 5 10 11 -6 -4 -7 -9 -2 -1 -13
right_child=4 2 7 -5 6 8 -8 9 -10 -11 -12 12 -14
leaf_value=-0.11195183153498443 0.061096098572344673 0.043278106326089867 0.001036883899830201 -0.026993111804810253 0.1271121435270309 -0.026912243457016059 0.033833448467606074 -0.042576363424413018 -0.052608821453270699 -0.018413216977035914 0.14235302193369678 -0.087558935860817255 -0.076422375459699474
leaf_weight=36 38 28 33 29 22 29 20 25 28 35 58 20 21
leaf_count=36 38 28 33 29 22 29 20 25 28 35 58 20 21
internal_value=0.000142146 -0.0116156 -0.000743187 -0.0196812 0.0243302 -0.0228188 0.015677 -0.00547798 -0.0162872 -0.00998336 0.0280957 -0.0276265 -0.0255474
internal_weight=422 284 121 163 138 134 42 93 57 60 96 77 41
internal_count=422 284 121 163 138 134 42 93 57 60 96 77 41
is_linear=0
shrinkage=0.03


Tree=25
num_leaves=14
num_cat=0
split_feature=13 12 13 7 12 12 0 0 7 0 9 0 4
split_gain=114.922 19.0937 15.7129 9.27752 8.04243 6.54374 5.11735 6.04141 4.01187 2.301 1.11732 0.436831 0.0683348
threshold=42.401515625000009 46.778845833333342 38.343090625000009 1.5000000000000002 41.486610416666672 40.795423437500013 21.750000000000004 14.750000000000002 1.5000000000000002 10.750000000000002 6.5000000000000009 9.6500000000000004 2.6050000000000004
decision_type=2 2 2 2 2 2 2 2 2 2 2 2 2
left_child=2 3 4 -2 8 6 7 -4 -1 -5 -10 12 -3
right_child=1 11 5 9 -6 -7 -8 -9 10 -11 -12 -13 -14
leaf_value=-0.038033427752502111 0.043899810831770587 0.16286612911018444 -0.026104876153305482 0.021435729771555001 -0.026183318450665849 0.0049856766889638136 -0.03903985705204057 0.0030131625208303348 -0.10536295897658206 -0.0097945868937543423 -0.085327139742181396 0.1299013937246227 0.12329877922122005
leaf_weight=20 28 20 33 26 23 34 21 35 47 33 21 20 66
leaf_count=20 28 20 33 26 23 34 21 35 47 33 21 20 66
internal_value=0.00259892 0.0197307 -0.0115335 0.00929966 -0.019712 -0.00414297 -0.00841751 -0.00440529 -0.0238365 0.00253807 -0.0273128 0.0282752 0.0292683
internal_weight=427 193 234 87 111 123 89 68 88 59 68 106 86
internal_count=427 193 234 87 111 123 89 68 88 59 68 106 86
is_linear=0
shrinkage=0.03


Tree=26
num_leaves=15
num_cat=0
split_feature=12 13 5 12 12 7 12 0 0 0 7 0 7 0
split_gain=119.72 27.1836 10.35 8.8449 7.97787 6.03367 6.5021 4.73456 4.27165 2.60214 1.49012 0.506548 0.438926 0.059263
threshold=44.279099479166675 38.343090625000009 3.2500000000000004 41.278013541666674 46.778845833333342 1.5000000000000002 41.417138541666674 14.450000000000001 8.1500000000000004 21.450000000000003 1.5000000000000002 21.250000000000004 4.5000000000000009 9.4500000000000011
decision_type=2 2 2 2 2 2 2 2 2 2 2 2 2 2
left_child=1 5 7 -4 8 -1 11 -3 -2 10 -9 -7 13 -6
right_child=4 2 3 -5 12 6 -8 9 -10 -11 -12 -13 -14 -15
leaf_value=-0.019395326588883179 0.05449844938085821 -0.033953056825128412 -0.014225625424119705 0.043694484276622349 0.13955016385686783 -0.083012808289139456 -0.056061044693786179 -0.020448743727106127 0.014486125469468085 -0.03571951544100084 0.0028238107606807007 -0.091693091931534729 0.10523964575598313 0.12592450884541381
leaf_weight=20 20 32 30 24 53 53 20 20 30 28 35 20 34 20
leaf_count=20 20 32 30 24 53 53 20 20 30 28 35 20 34 20
internal_value=0.00211797 -0.00957107 -0.00195151 0.00887246 0.0231063 -0.0209549 -0.0241676 -0.00703736 0.0131737 -0.0032491 0.000544465 -0.0283174 0.0277311 0.0291382
internal_weight=439 282 169 54 157 113 93 115 50 83 55 73 107 73
internal_count=439 282 169 54 157 113 93 115 50 83 55 73 107 73
is_linear=0
shrinkage=0.03


Tree=27
num_leaves=14
num_cat=0
split_feature=12 8 12 3 3 12 0 4 10 12 8 0 4
split_gain=109.095 29.5741 19.0948 10.9415 10.4896 6.64953 5.69469 5.11004 2.90509 2.04814 1.70879 0.425891 0.365146
threshold=44.724529687500009 1.0000000180025095e-35 40.730073958333342 9.9500000000000011 18.050000000000004 36.991154166666675 10.750000000000002 19.515000000000004 159.50000000000003 41.486610416666672 1.0000000180025095e-35 19.050000000000004 5.7300000000000013
decision_type=2 2 2 2 2 2 2 2 2 2 2 2 2
left_child=1 2 3 -1 -4 8 10 -7 -5 11 12 -3 -2
right_child=6 9 4 5 -6 7 -8 -9 -10 -11 -12 -13 -14
leaf_value=0.011089572326774223 0.14563320993461046 -0.094797955328913261 0.036733816997218366 -0.093668456313323392 -0.017087522579015156 0.0023906830336798989 0.039554961456247921 -0.032748687877556609 -0.023815829695373266 -0.058966182385377403 0.087382703519929522 -0.098825045958930283 0.055083761914646416
leaf_weight=20 57 34 39 24 20 28 24 38 33 23 39 20 25
leaf_count=20 57 34 39 24 20 28 24 38 33 23 39 20 25
internal_value=0.00226362 -0.00870656 -0.00267194 -0.00859539 0.0116751 -0.0119415 0.0233632 -0.00544629 -0.0194396 -0.0245136 0.0260116 -0.0277264 0.0285018
internal_weight=424 279 202 143 59 123 145 66 57 77 121 54 82
internal_count=424 279 202 143 59 123 145 66 57 77 121 54 82
is_linear=0
shrinkage=0.03


Tree=28
num_leaves=16
num_cat=0
split_feature=13 13 1 3 4 4 4 10 13 4 4 13 2 0 0
split_gain=93.7934 18.7542 9.86122 8.37553 9.43387 8.76367 4.47535 4.17396 1.97486 2.6071 1.44766 1.40774 0.883364 0.506611 1.55091
threshold=44.333494791666674 38.427445312500005 12.350000000000003 12.450000000000001 9.7000000000000011 17.730000000000004 6.5000000000000009 183.50000000000003 42.525869791666672 20.565000000000005 23.800000000000001 34.904709375000003 13.950000000000001 4.7500000000000009 6.4500000000000011
decision_type=2 2 2 2 2 2 2 2 2 2 2 2 2 2 2
left_child=1 7 13 5 -5 -3 -4 10 9 -6 11 -1 -9 -2 -15
right_child=2 3 6 4 8 -7 -8 12 -10 -11 -12 -13 -14 14 -16
leaf_value=-0.10651978107493967 0.10129318656035227 0.041437344996640244 0.074149375332045436 0.017428140807728382 -0.024966681596993254 -0.0044679768598341243 0.013356518706150559 -0.050525997445514968 -0.058373543181861436 -0.060519186652412738 -0.079918628065290848 -0.054846693055133997 -0.038035258641057862 0.075131688679653016 0.11533795679987342
leaf_weight=22 32 30 22 29 39 29 38 20 20 21 29 22 20 20 39
leaf_count=22 32 30 22 29 39 29 38 20 20 21 29 22 20 20 39
internal_value=0.00138857 -0.00885806 0.02045 -0.00249851 -0.00742438 0.00659898 0.0109817 -0.0183024 -0.0127341 -0.00998336 -0.0225718 -0.0190476 -0.0104738 0.026674 0.0248731
internal_weight=432 281 151 168 109 59 60 113 80 60 73 44 40 91 59
internal_count=432 281 151 168 109 59 60 113 80 60 73 44 40 91 59
is_linear=0
shrinkage=0.03


Tree=29
num_leaves=16
num_cat=0
split_feature=1 7 4 3 4 10 4 1 0 0 3 10 0 7 4
split_gain=91.988 26.6294 15.2941 17.1068 10.9995 8.73457 6.27526 5.65196 4.71129 6.85636 3.01181 1.08298 0.976541 0.692626 0.0370774
threshold=12.65 4.5000000000000009 17.305000000000003 13.850000000000003 9.3950000000000014 185.50000000000003 11.210000000000003 10.850000000000003 14.350000000000003 18.250000000000004 12.050000000000002 149.50000000000003 22.550000000000004 4.5000000000000009 4.7100000000000009
decision_type=2 2 2 2 2 2 2 2 2 2 2 2 2 2 2
left_child=7 2 3 6 -5 8 -2 13 -4 -10 -3 -12 -11 14 -1
right_child=1 10 5 4 -6 -7 -8 -9 9 12 11 -13 -14 -15 -16
leaf_value=0.15923893557450716 0.0051806339987632904 -0.042350691066259105 -0.041714056419386976 0.0332538217134217 -0.052142382081495561 0.0073761997945036477 0.042036808730292849 0.059269047689946744 0.0034163763947596235 -0.047655542226456689 -0.097981619754463192 -0.084706487409469053 -0.032819369344273569 0.089377311155899752 0.088921666910350083
leaf_weight=40 20 20 25 20 22 25 29 35 21 21 28 37 20 25 21
leaf_count=40 20 20 25 20 22 25 29 35 21 21 28 37 20 25 21
internal_value=0.00109998 -0.00812218 -0.00221566 0.00691548 -0.00712589 -0.00963426 0.0189409 0.0230388 -0.0141217 -0.00966184 -0.0222092 -0.0253456 -0.0167883 0.0271777 0.0289689
internal_weight=409 288 203 91 42 112 49 121 87 62 85 65 41 86 61
internal_count=409 288 203 91 42 112 49 121 87 62 85 65 41 86 61
is_linear=0
shrinkage=0.03


Tree=30
num_leaves=15
num_cat=0
split_feature=12 7 12 4 3 12 3 3 7 12 10 4 2 12
split_gain=117.575 23.8971 17.532 7.69962 7.18589 7.52881 5.13383 4.9844 3.65983 2.89158 2.48533 1.15666 0.413981 0.0547938
threshold=44.724529687500009 4.5000000000000009 38.991301041666674 23.140000000000004 15.15 42.326005208333335 13.950000000000001 18.350000000000005 3.5000000000000004 41.486610416666672 159.50000000000003 11.210000000000003 13.950000000000001 47.550009895833341
decision_type=2 2 2 2 2 2 2 2 2 2 2 2 2 2
left_child=1 2 3 6 5 -4 -1 11 -9 12 -6 13 -3 -2
right_child=7 9 4 -5 10 -7 -8 8 -10 -11 -12 -13 -14 -15
leaf_value=0.0025521933240472095 0.038879887216436156 -0.095127166443067734 0.0027662526084473883 -0.043746519412874246 -0.022664202719916593 0.069035422221055562 -0.034999673743030327 0.10904333879507756 0.047362174932822007 -0.053075780176725366 0.0036714379525285778 0.043110818297776882 -0.10982426534092486 0.12899931640516402
leaf_weight=29 21 32 37 37 20 20 37 22 24 24 20 20 20 60
leaf_count=29 21 32 37 37 20 20 37 22 24 24 20 20 20 60
internal_value=0.00219806 -0.00934444 -0.00389805 -0.0125121 0.00525232 0.0120841 -0.00635401 0.0238613 0.0156182 -0.0236531 -0.00448878 0.0275964 -0.0276392 0.0292232
internal_weight=423 276 200 103 97 57 66 147 46 76 40 101 52 81
internal_count=423 276 200 103 97 57 66 147 46 76 40 101 52 81
is_linear=0
shrinkage=0.03


Tree=31
num_leaves=16
num_cat=0
split_feature=12 7 1 4 7 10 12 13 12 12 13 4 12 7 2
split_gain=97.7133 20.3192 19.3811 10.6051 7.80231 5.26363 4.69255 4.0434 3.79659 3.05045 2.51258 1.52 0.799473 0.688177 0.0151049
threshold=41.926604166666671 4.5000000000000009 12.350000000000003 23.140000000000004 4.5000000000000009 203.50000000000003 37.652806250000005 46.707633854166673 36.611562500000005 45.737465625000006 43.825220833333347 19.350000000000005 40.350782812500007 4.5000000000000009 13.15
decision_type=2 2 2 2 2 2 2 2 2 2 2 2 2 2 2
left_child=1 3 9 5 7 8 -5 10 -1 -2 -4 -10 14 -11 -3
right_child=2 12 4 6 -6 -7 -8 -9 11 13 -12 -13 -14 -15 -16
leaf_value=-0.033386630469265231 0.045506210450373029 -0.092207123125680565 0.021654351663053288 -0.074779007374151968 -0.016686649105522731 0.010131628374222145 -0.021682219901733857 0.10075940840616425 0.003300657643726872 0.11712678633100285 0.0098438343389646125 -0.017150736829442011 -0.090081415435379245 0.085551432349256371 -0.12275398980647192
leaf_weight=24 20 22 21 27 33 39 27 21 22 60 23 20 20 31 20
leaf_count=24 20 22 21 27 33 39 27 21 22 60 23 20 20 31 20
internal_value=0.00237154 -0.0115332 0.0170732 -0.00584538 0.00733945 -0.000285442 -0.0166359 0.0133641 -0.00544629 0.0256526 0.00816327 0 -0.026087 0.0279912 -0.0285036
internal_weight=430 221 209 159 98 105 54 65 66 111 44 42 62 91 42
internal_count=430 221 209 159 98 105 54 65 66 111 44 42 62 91 42
is_linear=0
shrinkage=0.03


Tree=32
num_leaves=16
num_cat=0
split_feature=12 12 7 7 12 3 4 3 12 4 1 4 1 2 7
split_gain=102.495 15.02 14.0919 10.5218 7.23551 5.93876 3.91002 3.25844 2.93034 2.45172 2.60101 1.87902 1.44785 0.867913 0.241473
threshold=42.489764583333347 47.426676041666674 4.5000000000000009 4.5000000000000009 39.204880208333343 17.050000000000004 23.140000000000004 13.850000000000003 39.765893750000011 16.835000000000004 24.150000000000002 17.225000000000005 14.850000000000003 7.3500000000000005 3.5000000000000004
decision_type=2 2 2 2 2 2 2 2 2 2 2 2 2 2 2
left_child=3 2 5 4 6 12 7 -1 -5 -6 -11 -9 -2 14 -3
right_child=1 13 -4 8 9 -7 -8 11 -10 10 -12 -13 -14 -15 -16
leaf_value=-0.00067996062746839665 0.060606494933963757 0.11453835688800851 -0.016089903787567045 -0.11907137011227785 0.0053420335978804087 0.0042498784382218342 -0.049375892535502432 -0.042596455119015351 -0.049588623298310354 -0.021031753304681829 0.0023643761634728833 -0.027353705882955878 0.034505398876515728 0.12163969589326509 0.099593028599364572
leaf_weight=34 25 42 26 34 26 20 38 20 28 23 22 22 23 20 29
leaf_count=34 25 42 26 34 26 20 38 20 28 23 22 22 23 20 29
internal_value=0.00111085 0.0179903 0.00956429 -0.0115338 -0.00794165 0.0167401 -0.0126205 -0.0086728 -0.0222222 -0.000421941 -0.00465632 -0.0142518 0.0224532 0.026674 0.02827
internal_weight=432 185 94 247 185 68 114 76 62 71 45 42 48 91 71
internal_count=432 185 94 247 185 68 114 76 62 71 45 42 48 91 71
is_linear=0
shrinkage=0.03


Tree=33
num_leaves=15
num_cat=0
split_feature=12 7 12 4 3 4 2 13 3 12 3 9 12 9
split_gain=83.8068 31.1068 14.3009 8.50227 16.5294 8.17154 6.44909 5.53001 4.0102 2.89158 2.61778 2.70426 0.472153 0.413981
threshold=45.246287500000001 4.5000000000000009 39.137066666666676 5.5150000000000006 13.450000000000001 17.560000000000006 12.750000000000002 37.359813020833343 13.250000000000002 41.539403645833339 10.850000000000003 5.5000000000000009 50.435430208333337 6.5000000000000009
decision_type=2 2 2 2 2 2 2 2 2 2 2 2 2 2
left_child=1 2 7 12 -5 8 -7 -1 -4 13 -9 -12 -2 -3
right_child=3 9 5 4 -6 6 -8 10 -10 -11 11 -13 -14 -15
leaf_value=-0.049307910357260662 0.072224358448123374 -0.10351449307517782 0.036597747615401986 0.076810989311038816 -0.0023892707757842044 -0.020400800705541327 0.0041860677532054779 0.0040052231771888812 0.0094880136341567566 -0.05352857954749897 -0.022786684706198733 -0.01267170848286284 0.15396779470279567 -0.077949060354582614
leaf_weight=30 36 32 29 24 26 23 20 21 33 24 22 33 45 20
leaf_count=30 36 32 29 24 26 23 20 21 33 24 22 33 45 20
internal_value=0.00186558 -0.00721003 -0.00127901 0.0217391 0.011976 0.00656518 -0.00348028 -0.00904807 0.0135266 -0.0236531 -0.00473062 -0.00816697 0.0277435 -0.0276392
internal_weight=418 287 211 131 50 105 43 106 62 76 76 55 81 52
internal_count=418 287 211 131 50 105 43 106 62 76 76 55 81 52
is_linear=0
shrinkage=0.03


Tree=34
num_leaves=16
num_cat=0
split_feature=12 13 1 7 12 1 13 9 12 1 12 7 12 0 12
split_gain=100.719 15.8323 12.517 9.55093 5.47967 8.73355 6.0051 4.64732 4.51173 3.84653 3.51031 1.0552 0.822422 0.379787 0.0584299
threshold=43.652922395833336 42.401515625000009 12.350000000000003 4.5000000000000009 39.204880208333343 22.050000000000004 39.177670312500005 8.5000000000000018 41.417138541666674 18.950000000000003 41.039989062500005 1.5000000000000002 47.550009895833341 17.950000000000003 52.567140104166675
decision_type=2 2 2 2 2 2 2 2 2 2 2 2 2 2 2
left_child=1 3 12 4 5 9 -6 -4 13 -1 -3 -7 -2 -5 -14
right_child=2 10 7 8 6 11 -8 -9 -10 -11 -12 -13 14 -15 -16
leaf_value=-0.015529365407370896 0.041425455244579898 -0.0055060086124454699 0.013931805787961266 -0.078435100691174417 0.0058966005292449353 -0.040132001631472319 -0.020172377087541021 0.076021117515026618 -0.051085779354929417 0.0078681529923806427 0.030394602259954624 -0.035594716176599449 0.09547555782137962 -0.1021758541783674 0.18759360944495146
leaf_weight=26 24 23 39 27 22 25 37 21 22 20 21 22 52 20 20
leaf_count=26 24 23 39 27 22 25 37 21 22 20 21 22 52 20 20
internal_value=0.00163857 -0.00961901 0.0207559 -0.0128901 -0.0086785 -0.0132116 -0.00152284 0.00998336 -0.0221418 -0.00390456 0.00680272 -0.022293 0.0274714 -0.0273885 0.0291262
internal_weight=421 265 156 221 152 93 59 60 69 46 44 47 96 47 72
internal_count=421 265 156 221 152 93 59 60 69 46 44 47 96 47 72
is_linear=0
shrinkage=0.03


Tree=35
num_leaves=15
num_cat=0
split_feature=13 1 10 13 3 12 3 12 4 2 4 4 1 12
split_gain=86.4379 18.4039 14.9712 8.24233 8.20954 4.94999 4.28263 5.48202 3.47474 3.43944 3.37542 3.16053 2.3416 2.04316
threshold=44.07077447916668 12.250000000000002 265.50000000000006 37.359813020833343 12.450000000000001 37.359813020833343 11.950000000000001 46.674227604166681 15.750000000000002 13.550000000000002 17.975000000000005 19.515000000000004 25.450000000000003 47.550009895833341
decision_type=2 2 2 2 2 2 2 2 2 2 2 2 2 2
left_child=2 13 3 5 10 -1 -3 -8 -6 -7 -5 -10 -13 -2
right_child=1 6 -4 4 8 9 7 -9 11 -11 -12 12 -14 -15
leaf_value=-0.089719425443112039 0.042530866295873083 0.029482764192156025 0.017379317332318178 0.022250977923018417 -0.042466068201706869 -0.059492333473921091 -0.0097915458076262493 0.089605728969805148 -0.0067863155773684623 -0.021050561895829743 -0.005060919161766755 -0.011363999400022067 -0.064549736882037509 0.12352889166354607
leaf_weight=33 23 23 35 20 28 23 21 20 24 31 32 23 24 71
leaf_count=33 23 23 35 20 28 23 21 20 24 31 32 23 24 71
internal_value=0.0013222 0.0189753 -0.00889784 -0.0115918 -0.00734613 -0.0189437 0.00655226 0.000729927 -0.0124117 -0.0133087 0.00230326 -0.00886076 -0.0133758 0.0274176
internal_weight=431 158 273 238 151 87 64 41 99 54 52 71 47 94
internal_count=431 158 273 238 151 87 64 41 99 54 52 71 47 94
is_linear=0
shrinkage=0.03


Tree=36
num_leaves=14
num_cat=0
split_feature=1 8 12 4 12 12 0 0 2 0 0 0 13
split_gain=89.6769 23.0742 12.1111 6.42961 5.98951 5.243 4.84282 4.71578 6.58362 3.12039 1.46604 0.810497 0.483519
threshold=12.350000000000003 1.0000000180025095e-35 37.290830729166672 19.400000000000002 41.539403645833339 48.803044270833333 12.550000000000002 13.850000000000003 12.050000000000002 19.750000000000004 10.900000000000002 18.250000000000004 46.149557812500014
decision_type=2 2 2 2 2 2 2 2 2 2 2 2 2
left_child=5 2 3 -2 11 12 10 -8 -9 -10 -4 -3 -1
right_child=1 4 6 -5 -6 -7 7 8 9 -11 -12 -13 -14
leaf_value=0.031393264536174602 -0.008878377827436985 -0.089057205622138758 0.01087472618968576 -0.053438316268099299 -0.02730103674294387 0.11131880428232957 -0.015813353896594932 0.021931695630545887 -0.024797752493917996 0.0028130190745498493 0.016484975488709353 -0.086939542249642482 0.051574349562986614
leaf_weight=22 34 26 30 36 36 72 21 20 22 30 29 22 24
leaf_count=22 34 26 30 36 36 72 21 20 22 30 29 22 24
internal_value=0.00268805 -0.00588043 -0.000810446 -0.011127 -0.0192628 0.0248942 0.00394477 -0.000322234 0.00332871 -0.00230326 0.0106599 -0.0261954 0.0169197
internal_weight=424 306 222 70 84 118 152 93 72 52 59 48 46
internal_count=424 306 222 70 84 118 152 93 72 52 59 48 46
is_linear=0
shrinkage=0.03


Tree=37
num_leaves=16
num_cat=0
split_feature=13 7 4 1 3 3 4 1 10 7 1 10 0 0 4
split_gain=79.5264 16.4673 10.2914 10.1104 5.01523 4.06395 3.33252 3.0311 2.88679 2.79863 1.81185 1.71026 0.746733 1.14727 0.317614
threshold=44.928773437500006 4.5000000000000009 10.305000000000001 12.250000000000002 12.450000000000001 12.450000000000001 21.830000000000002 22.050000000000004 75.500000000000014 1.5000000000000002 21.550000000000004 179.50000000000003 4.7500000000000009 6.4500000000000011 3.5900000000000003
decision_type=2 2 2 2 2 2 2 2 2 2 2 2 2 2 2
left_child=1 2 -1 12 6 -3 -4 9 -5 -6 -7 -9 -2 -14 -15
right_child=3 5 4 8 7 10 -8 11 -10 -11 -12 -13 13 14 -16
leaf_value=0.017210155594040193 0.10504571872378993 -0.01990648400610219 0.0057385431263044847 0.024539134649171394 0.0098434799578684101 -0.089230188677429642 -0.011709190844132066 -0.048909158836230836 0.032294258235630903 -0.026152010080074319 -0.05077309030013772 -0.010584256383898811 0.082484056578807446 0.12385799209975544 0.070050512105665624
leaf_weight=34 32 25 28 26 24 38 32 26 23 29 21 20 20 20 20
leaf_count=34 32 25 28 26 24 38 32 26 23 29 21 20 20 20 20
internal_value=0.00186558 -0.00747023 -0.00264112 0.0201984 -0.00584538 -0.0185493 0.000998336 -0.00998991 0.00916497 -0.00508475 -0.0228426 -0.0156182 0.0260586 0.0239601 0.0269327
internal_weight=418 277 193 141 159 84 60 99 49 53 59 46 92 60 40
internal_count=418 277 193 141 159 84 60 99 49 53 59 46 92 60 40
is_linear=0
shrinkage=0.03


Tree=38
num_leaves=16
num_cat=0
split_feature=1 7 12 12 7 4 12 7 1 2 12 12 13 4 0
split_gain=84.7981 19.0303 13.3995 11.1032 9.96401 8.20517 6.60083 5.17986 3.50024 5.55169 4.58043 2.15605 2.02358 0.059263 0.0151049
threshold=13.600000000000001 4.5000000000000009 48.803044270833333 40.730073958333342 3.5000000000000004 22.565000000000001 39.765893750000011 2.5000000000000004 19.650000000000002 14.400000000000002 36.611562500000005 37.652806250000005 36.754909375000004 2.7900000000000005 17.250000000000004
decision_type=2 2 2 2 2 2 2 2 2 2 2 2 2 2 2
left_child=2 3 4 5 -1 8 14 -5 10 -10 -2 -7 -8 -4 -3
right_child=1 6 13 7 -6 11 12 -9 9 -11 -12 -13 -14 -15 -16
leaf_value=0.044818947726999313 -0.021835117268210167 -0.12751409044835657 0.12593511913038774 0.033657889719168846 -0.0067143243596105504 -0.057920559639407364 -0.020761882594803893 -0.00055205077683222463 0.019884501752586593 -0.028303421685577489 0.00058784527528366937 -0.021254046920047891 -0.053367894807814197 0.096145253953712664 -0.087064420665219938
leaf_weight=36 27 22 20 35 24 28 22 36 20 21 25 22 25 53 20
leaf_count=36 27 22 20 35 24 28 22 36 20 21 25 22 25 53 20
internal_value=0.000550332 -0.00821511 0.0205109 -0.00336291 0.00998336 -0.0081761 -0.0198653 0.00632911 -0.00290011 0.00364964 -0.00806142 -0.0179641 -0.0121019 0.0291382 -0.0285036
internal_weight=436 303 133 214 60 143 89 71 93 41 52 50 47 73 42
internal_count=436 303 133 214 60 143 89 71 93 41 52 50 47 73 42
is_linear=0
shrinkage=0.03


Tree=39
num_leaves=15
num_cat=0
split_feature=1 10 7 10 7 10 0 0 3 7 0 9 1 1
split_gain=81.4491 17.2093 16.2378 7.98113 6.1031 4.1076 3.38228 9.61996 3.29511 3.17218 2.61059 2.19496 1.53498 0.331364
threshold=12.350000000000003 289.50000000000006 4.5000000000000009 85.500000000000014 1.0000000180025095e-35 187.50000000000003 14.350000000000003 18.250000000000004 12.450000000000001 4.5000000000000009 18.250000000000004 8.5000000000000018 10.850000000000003 7.4500000000000011
decision_type=2 2 2 2 2 2 2 2 2 2 2 2 2 2
left_child=9 2 3 -2 -5 6 -6 -8 -4 12 -10 -7 13 -1
right_child=1 -3 8 4 5 11 7 -9 10 -11 -12 -13 -14 -15
leaf_value=0.088276724790280703 0.01217261761351235 0.053639368718341275 -0.039359068294038055 -0.027454319035010142 -0.027335028614151574 0.0059567495727435114 0.0059629353557302516 -0.028526655667930709 -0.075268966771985926 0.06012828018394014 -0.038400832201622312 -0.00051338335473822378 0.043822577123826388 0.09326089633510122
leaf_weight=24 30 29 21 35 30 28 25 39 39 36 20 21 21 39
leaf_count=24 30 29 21 35 30 28 25 39 39 36 20 21 21 39
internal_value=0.00144132 -0.00652791 -0.00874696 -0.00432484 -0.00673779 -0.00398323 -0.00765143 -0.00374415 -0.0202247 0.0224813 -0.0238579 0.00305499 0.0256837 0.0280507
internal_weight=437 317 288 208 178 143 94 64 80 120 59 49 84 63
internal_count=437 317 288 208 178 143 94 64 80 120 59 49 84 63
is_linear=0
shrinkage=0.03


Tree=40
num_leaves=16
num_cat=0
split_feature=13 13 12 4 3 3 1 10 12 9 12 13 13 10 0
split_gain=70.0159 13.9333 11.1401 10.8296 8.55053 6.55046 7.07841 5.19661 5.03758 7.74443 4.89668 3.4072 2.43067 0.644022 0.0175157
threshold=44.928773437500006 38.343090625000009 48.803044270833333 8.4800000000000022 15.65 11.15 10.850000000000003 175.50000000000003 38.282194270833337 5.5000000000000009 39.204880208333343 35.038192187500009 36.074908854166672 33.500000000000007 7.9500000000000011
decision_type=2 2 2 2 2 2 2 2 2 2 2 2 2 2 2
left_child=1 10 5 -3 8 -2 -7 -6 -5 -10 11 -1 -12 -4 -15
right_child=2 3 13 4 7 6 -8 -9 9 -11 12 -13 -14 14 -16
leaf_value=-0.1032325877569221 0.032436621366604967 0.030320521075713421 0.095346834091936117 -0.0093808609385040136 -0.013443518185375467 0.043596705223966872 -0.010452372094832541 -0.070118939974667643 -0.00015004633579884796 0.015246681385671259 -0.0026226342720543625 -0.04311628868101202 -0.034482859996713626 0.10851127559475231 0.095137494261854166
leaf_weight=31 20 28 33 36 35 22 28 20 33 20 20 39 23 23 20
leaf_count=31 20 28 33 36 35 22 28 20 33 20 20 39 23 23 20
internal_value=0.00118302 -0.00747106 0.0180698 -0.00209181 -0.00541291 0.00941512 0.00359281 -0.0147005 0.0003367 0.00621469 -0.0156499 -0.0205421 -0.00765661 0.0260184 0.0285383
internal_weight=431 285 146 172 144 70 50 55 89 53 113 70 43 76 43
internal_count=431 285 146 172 144 70 50 55 89 53 113 70 43 76 43
is_linear=0
shrinkage=0.03


Tree=41
num_leaves=16
num_cat=0
split_feature=13 10 7 10 10 3 10 1 1 4 3 7 10 3 1
split_gain=71.4752 14.3839 13.7773 8.94968 7.9643 9.00633 13.709 6.60387 8.51309 3.23487 2.66963 2.03068 1.78675 1.14723 1.00039
threshold=44.627705208333346 265.50000000000006 4.5000000000000009 105.50000000000001 309.50000000000006 11.15 51.500000000000007 19.950000000000003 29.550000000000004 17.560000000000006 15.550000000000002 3.5000000000000004 189.50000000000003 13.550000000000002 21.350000000000005
decision_type=2 2 2 2 2 2 2 2 2 2 2 2 2 2 2
left_child=1 2 3 -1 5 -2 11 9 10 -5 12 -7 -9 -4 -15
right_child=4 -3 13 7 -6 6 -8 8 -10 -11 -12 -13 -14 14 -16
leaf_value=0.032144819793747954 0.045353210566749312 0.02290791267245364 -0.039500794892891662 -0.071083801374500086 0.11829418314527096 0.081243037116998373 -0.0079267361217590353 0.00048185289344182536 -0.045893938233398719 -0.017744400222960761 -0.024573878365185136 0.077612543128287678 0.0073380106276427172 -0.070698239110833005 -0.041015930758591994
leaf_weight=21 31 34 22 20 39 29 31 24 26 21 21 23 23 20 28
leaf_count=21 31 34 22 20 39 29 31 24 26 21 21 23 23 20 28
internal_value=0.00196078 -0.00761246 -0.0103494 -0.00538117 0.0182234 0.0141981 0.00902527 -0.00821614 -0.00382572 -0.0182482 0.00176211 0.0184261 0.00573248 -0.021398 -0.018711
internal_weight=413 260 226 156 153 114 83 135 94 41 68 52 47 70 48
internal_count=413 260 226 156 153 114 83 135 94 41 68 52 47 70 48
is_linear=0
shrinkage=0.03


Tree=42
num_leaves=16
num_cat=0
split_feature=1 10 3 12 12 13 0 12 3 2 2 13 12 12 9
split_gain=82.4005 22.6402 11.6603 12.3422 9.00025 7.16184 6.02534 12.1364 3.71527 3.52801 1.87695 1.63955 1.54163 1.73127 0.759847
threshold=13.050000000000002 289.50000000000006 12.350000000000003 41.926604166666671 48.803044270833333 38.427445312500005 15.850000000000003 38.991301041666674 14.65 16.350000000000005 14.550000000000002 40.920964583333344 38.657118229166677 41.637508333333336 1.5000000000000002
decision_type=2 2 2 2 2 2 2 2 2 2 2 2 2 2 2
left_child=4 2 3 5 8 -2 12 10 -1 -9 -8 -7 -4 -14 -6
right_child=1 -3 6 -5 14 11 7 9 -10 -11 -12 -13 13 -15 -16
leaf_value=0.033705492495121059 -0.036988771008356097 0.067306868302703507 -0.039335852668922297 0.034431507019850753 0.088413142014445389 0.0066611895246570536 -0.036107275825276661 -0.0098270310528776866 0.0086839931001114219 0.0084620015624321705 -0.048379716912376657 -0.0015678317004661579 -0.036608932249728526 -0.03451136942652596 0.093119009094112817
leaf_weight=22 25 25 23 24 28 24 23 22 35 20 34 25 23 26 52
leaf_count=22 25 25 23 24 28 24 23 22 35 20 34 25 23 26 52
internal_value=0.00201809 -0.00693642 -0.00947603 -0.00122324 0.0212254 -0.00728745 -0.0142022 -0.00938446 0.0120841 0.00285036 -0.0183888 -0.000610998 -0.0208044 -0.0238289 0.0277154
internal_weight=431 294 269 98 137 74 171 99 57 42 57 49 72 49 80
internal_count=431 294 269 98 137 74 171 99 57 42 57 49 72 49 80
is_linear=0
shrinkage=0.03


Tree=43
num_leaves=15
num_cat=0
split_feature=12 7 4 3 1 10 10 3 3 12 1 12 12 7
split_gain=77.2197 15.8576 12.6739 16.1987 8.24855 7.79451 5.29214 3.29648 4.83863 6.37683 4.92398 3.26633 3.18773 3.13155
threshold=42.489764583333347 4.5000000000000009 5.5150000000000006 12.450000000000001 12.350000000000003 109.50000000000001 127.50000000000001 10.750000000000002 14.850000000000003 38.034549479166678 19.450000000000003 50.297452083333347 39.789055729166677 3.5000000000000004
decision_type=2 2 2 2 2 2 2 2 2 2 2 2 2 2
left_child=1 5 11 -4 -5 -1 -7 -8 9 -9 -10 13 -3 -2
right_child=2 12 3 4 -6 6 7 8 10 -11 -12 -13 -14 -15
leaf_value=0.026913620188380491 0.054525294596027223 -0.08911051081654818 0.046606395076239475 0.039102092547021135 -0.012474162458057698 -0.04116415637143294 -0.0091413220194663577 -0.0055244479912266798 0.0096069241924156036 0.010197988651818974 -0.046491987957414369 0.13826281774491775 -0.035879107878105498 0.052557394334232864
leaf_weight=23 27 35 35 26 32 24 29 24 22 20 30 47 27 21
leaf_count=23 27 35 35 26 32 24 29 24 22 20 30 47 27 21
internal_value=0.00227434 -0.00922683 0.0165869 0.00870032 -0.0010327 -0.00453225 -0.00704225 -0.00455635 -0.00187305 0.00544218 -0.00806142 0.0242902 -0.0222222 0.018711
internal_weight=422 234 188 93 58 172 149 125 96 44 52 95 62 48
internal_count=422 234 188 93 58 172 149 125 96 44 52 95 62 48
is_linear=0
shrinkage=0.03


Tree=44
num_leaves=16
num_cat=0
split_feature=12 8 0 12 3 0 0 0 0 1 3 0 1 12 8
split_gain=67.8995 26.6085 18.5769 10.047 8.96137 9.41099 5.41768 4.81146 4.07315 5.50285 5.55169 3.7752 3.19123 1.50289 0.873649
threshold=47.550009895833341 1.0000000180025095e-35 7.7500000000000009 34.621813020833336 18.350000000000005 20.950000000000006 12.350000000000003 9.4500000000000011 14.350000000000003 15.65 12.15 15.950000000000001 22.650000000000002 39.765893750000011 1.0000000180025095e-35
decision_type=2 2 2 2 2 2 2 2 2 2 2 2 2 2 2
left_child=1 2 -1 -4 5 8 -3 14 9 -5 -11 -6 -10 -8 -2
right_child=7 6 3 4 11 -7 13 -9 12 10 -12 -13 -14 -15 -16
leaf_value=0.037715299252808233 0.0805264408465938 -0.010320887367675908 -0.045332219617141477 0.025142747963373891 -0.026521547706432249 -0.014264692357371728 -0.10027438147821158 0.091877752452704797 0.030622025481996003 0.0060525426508436196 -0.014524278156714273 -0.02974388514483433 0.00060186450500424374 -0.063852949576373455 0.086332595738485479
leaf_weight=21 48 28 25 29 24 38 27 23 20 21 20 22 21 30 25
leaf_count=21 48 28 25 29 24 38 27 23 20 21 20 22 21 30 25
internal_value=0.00156361 -0.0049678 0.00012443 -0.00245343 -0.000153767 0.00342052 -0.019389 0.0237253 0.00783078 0.00342368 -0.00364964 -0.0117137 0.0153285 -0.0246935 0.0274966
internal_weight=422 326 241 220 195 149 85 96 111 70 41 46 41 57 73
internal_count=422 326 241 220 195 149 85 96 111 70 41 46 41 57 73
is_linear=0
shrinkage=0.03


Tree=45
num_leaves=18
num_cat=0
split_feature=13 7 12 12 7 0 7 12 13 4 3 3 3 9 9 0 0
split_gain=59.6543 17.2797 11.1264 9.49295 8.18513 8.72928 7.96633 6.29164 5.42806 4.38335 3.98356 3.48517 3.09965 2.24582 1.76292 2.02944 0.907895
threshold=44.928773437500006 4.5000000000000009 49.209369270833342 34.621813020833336 3.5000000000000004 7.7500000000000009 2.5000000000000004 41.195136458333344 38.830695833333344 17.730000000000004 12.750000000000002 17.700000000000006 14.65 5.5000000000000009 10.500000000000002 6.6500000000000012 17.650000000000002
decision_type=2 2 2 2 2 2 2 2 2 2 2 2 2 2 2 2 2
left_child=1 3 4 -1 5 -2 8 16 -5 -8 -10 -12 -9 -11 15 -4 -3
right_child=2 7 14 6 -6 -7 9 12 10 13 11 -13 -14 -15 -16 -17 -18
leaf_value=-0.052815394871980455 0.037739059408679193 -0.059739837666811402 0.10556693454346738 0.017569562204078081 -0.014320664605616642 0.00085261869443662873 0.0070029330150496345 -0.0079653964462890053 0.018093056985495719 -0.030961863771189327 -0.022686723431634057 0.009030822492829849 -0.06200733943493638 -0.0049787454989255759 0.12762715659191079 0.060909559460301563 -0.075330717249088575
leaf_weight=26 21 24 22 23 23 31 23 21 24 22 20 24 20 22 33 23 20
leaf_count=26 21 24 22 23 23 31 23 21 24 22 20 24 20 22 33 23 20
internal_value=0.00170576 -0.00680045 0.0166558 -0.00162955 0.00838881 0.0149712 0.00113852 -0.0179788 0.00691548 -0.00670641 0.00264317 -0.00272109 -0.00948905 -0.0122449 0.0245839 0.0206208 -0.0258503
internal_weight=422 269 153 184 75 52 158 85 91 67 68 44 41 44 78 45 44
internal_count=422 269 153 184 75 52 158 85 91 67 68 44 41 44 78 45 44
is_linear=0
shrinkage=0.03


Tree=46
num_leaves=15
num_cat=0
split_feature=13 1 10 7 3 1 1 3 4 3 4 7 10 3
split_gain=69.2101 13.1966 10.6783 8.77842 8.27579 4.01339 3.54172 3.28524 5.69957 4.9018 4.82213 3.18834 0.726904 0.475815
threshold=44.07077447916668 11.550000000000002 259.50000000000006 4.5000000000000009 16.950000000000003 16.050000000000004 18.650000000000002 12.450000000000001 21.830000000000002 14.65 19.085000000000004 4.5000000000000009 43.500000000000007 13.850000000000003
decision_type=2 2 2 2 2 2 2 2 2 2 2 2 2 2
left_child=2 11 3 7 5 -3 -5 8 -1 -9 -11 12 -2 -8
right_child=1 4 -4 6 -6 -7 13 9 -10 10 -12 -13 -14 -15
leaf_value=0.0079494908419245284 0.061153619911525965 0.053814237072419537 0.011568348020856618 -0.011710407720102935 -0.0062348708987723708 0.0058453878104852202 -0.080126501509726389 -0.039642827524587858 -0.0072003730795089987 -0.031243477414388678 0.0017133881965879993 0.062795774207856703 0.070874056394508139 -0.045202894174898277
leaf_weight=24 27 22 38 20 31 23 23 27 32 34 36 23 41 27
leaf_count=24 27 22 38 20 31 23 23 27 32 34 36 23 41 27
internal_value=0.00126139 0.0163375 -0.00838759 -0.010892 0.00709593 0.0152993 -0.0196862 -0.00685826 -0.00106952 -0.0101957 -0.00599144 0.0240395 0.0273128 -0.0239521
internal_weight=428 167 261 223 76 45 70 153 56 97 70 91 68 50
internal_count=428 167 261 223 76 45 70 153 56 97 70 91 68 50
is_linear=0
shrinkage=0.03


Tree=47
num_leaves=15
num_cat=0
split_feature=12 10 7 1 7 10 12 12 4 12 7 0 2 1
split_gain=66.9414 15.6353 14.929 11.1942 10.8254 7.30447 5.80514 5.30728 5.30171 4.06775 4.77989 3.4773 2.62022 0.583986
threshold=41.926604166666671 309.50000000000006 4.5000000000000009 11.550000000000002 4.5000000000000009 185.50000000000003 39.237118750000008 46.227031770833342 11.210000000000003 38.282194270833337 2.5000000000000004 18.250000000000004 13.950000000000001 7.7500000000000009
decision_type=2 2 2 2 2 2 2 2 2 2 2 2 2 2
left_child=4 2 3 13 5 9 -7 -4 -5 11 -11 -1 -6 -2
right_child=1 -3 7 8 12 6 -8 -9 -10 10 -12 -13 -14 -15
leaf_value=-0.018952142932892178 0.057108226262109339 0.10204855712319137 -0.024935715413548606 -0.00060373767669986479 -0.075175863539110557 -0.0033789216964241575 0.0090233964815580239 0.020224402540394201 0.029106572389624715 0.0093873851513215801 -0.017596887029770976 -0.043501432398555903 -0.054338014610961133 0.059319011314180083
leaf_weight=34 21 44 21 35 38 35 21 26 24 21 24 27 24 33
leaf_count=34 21 44 21 35 38 35 21 26 24 21 24 27 24 33
internal_value=0.00168185 0.0141107 0.00974391 0.0156499 -0.00963855 -0.00555213 0.00320856 -0.0044586 0.00659898 -0.0101791 -0.00332594 -0.0152209 -0.0202899 0.0255083
internal_weight=428 204 160 113 224 162 56 47 59 106 45 61 62 54
internal_count=428 204 160 113 224 162 56 47 59 106 45 61 62 54
is_linear=0
shrinkage=0.03


Tree=48
num_leaves=15
num_cat=0
split_feature=4 0 7 9 10 3 12 1 4 4 7 3 1 3
split_gain=56.9939 25.9087 11.7178 8.00102 10.2101 7.36615 5.05825 4.41477 7.26078 4.22649 6.54079 4.10456 2.95736 0.875423
threshold=5.5150000000000006 8.0500000000000025 4.5000000000000009 9.5000000000000018 25.500000000000004 12.450000000000001 35.368054166666674 17.650000000000002 23.290000000000003 15.750000000000002 2.5000000000000004 17.850000000000005 21.850000000000005 18.850000000000005
decision_type=2 2 2 2 2 2 2 2 2 2 2 2 2 2
left_child=3 -2 5 4 -1 7 -7 -3 -9 13 -11 12 -4 -8
right_child=1 2 11 -5 -6 6 9 8 -10 10 -12 -13 -14 -15
leaf_value=0.089890504125879359 0.032221274913249151 -0.004784992291505823 -0.014270728416341392 0.089945155301643959 0.029784397757689048 -0.06857462286632475 -0.0022826429032791751 0.020161785989690983 -0.0042289621243600094 0.015392319547181045 -0.03125242973157448 -0.087685227158862594 -0.052269560892807619 -0.025666815909781988
leaf_weight=20 32 24 22 48 33 22 20 27 25 33 29 20 30 20
leaf_count=20 32 24 22 48 33 22 20 27 25 33 29 20 30 20
internal_value=0.00155517 -0.00493259 -0.00793826 0.0210682 0.0129944 -0.0041979 -0.00870266 0.00315375 0.00806142 -0.00587659 -0.000966184 -0.0183079 -0.0138196 -0.0134663
internal_weight=405 304 272 101 53 200 124 76 52 102 62 72 52 40
internal_count=405 304 272 101 53 200 124 76 52 102 62 72 52 40
is_linear=0
shrinkage=0.03


Tree=49
num_leaves=15
num_cat=0
split_feature=12 8 0 4 12 13 12 13 3 2 2 12 4 3
split_gain=61.7302 14.896 12.8504 7.42067 6.36782 6.36797 6.047 3.34018 3.95671 3.50439 4.56239 2.23311 1.344 0.431522
threshold=47.550009895833341 1.0000000180025095e-35 8.3500000000000032 6.7250000000000005 41.417138541666674 41.96851927083334 34.904709375000003 40.837408854166675 12.65 14.750000000000002 9.5500000000000025 50.153709375000012 17.455000000000002 19.450000000000003
decision_type=2 2 2 2 2 2 2 2 2 2 2 2 2 2
left_child=1 2 -1 -4 12 -6 -5 9 -9 10 -8 -2 -3 -13
right_child=11 4 3 6 5 -7 7 8 -10 -11 -12 13 -14 -15
leaf_value=0.032114428652972898 0.04501070660204462 -0.02978273414577863 0.047730439757439777 -0.037983485429196301 0.012075973849325655 -0.024718792999461277 -0.00069390585539920837 0.0017834700270443092 -0.018699708064902294 -0.012590337376014418 0.0091742428838804107 0.093673261858006424 -0.088389602905028106 0.093103293734030645
leaf_weight=22 35 21 20 28 22 20 21 38 34 28 33 35 29 20
leaf_count=22 35 21 20 28 22 20 21 38 34 28 33 35 29 20
internal_value=0.00206846 -0.00417589 0 -0.00237506 -0.0143322 -0.00570071 -0.00428336 -0.00194679 -0.00665742 0.00219245 0.00665434 0.0239734 -0.0215569 0.0277677
internal_weight=406 316 224 202 92 42 182 154 72 82 54 90 50 55
internal_count=406 316 224 202 92 42 182 154 72 82 54 90 50 55
is_linear=0
shrinkage=0.03


Tree=50
num_leaves=15
num_cat=0
split_feature=1 4 3 4 9 10 10 12 7 4 7 7 3 4
split_gain=58.1463 15.9014 15.2751 9.10768 8.10737 7.30531 6.96977 8.31257 9.45424 4.56239 4.05352 3.09458 4.33019 1.48374
threshold=12.350000000000003 4.870000000000001 12.350000000000003 16.770000000000003 8.5000000000000018 27.500000000000004 241.50000000000003 35.226740104166673 4.5000000000000009 6.1750000000000007 3.5000000000000004 1.5000000000000002 18.250000000000004 22.010000000000002
decision_type=2 2 2 2 2 2 2 2 2 2 2 2 2 2
left_child=4 -2 3 -3 5 -1 7 -4 11 -7 13 -9 -13 -5
right_child=1 2 6 10 -6 9 -8 8 -10 -11 -12 12 -14 -15
leaf_value=0.084392140668222274 0.060776156097412937 0.028653925140688798 -0.099363406861288153 -0.0015705384823240108 0.093478547894706165 -0.0058133105317275374 -0.037172070711572899 0.01549154120271261 -0.039026935716232738 0.029448291016748625 -0.022987400752206639 -0.0025478701606252941 -0.024147184594982603 0.00071994517886956536
leaf_weight=22 23 39 25 21 36 21 29 25 39 33 23 39 20 23
leaf_count=22 23 39 25 21 36 21 29 25 39 33 23 39 20 23
internal_value=-0.000287013 -0.00705652 -0.00900742 0 0.018198 0.012615 -0.0143986 -0.0117488 -0.00852965 0.00665434 -0.00670641 -0.00285375 -0.00659898 -0.00136054
internal_weight=418 306 283 106 112 76 177 148 123 54 67 84 59 44
internal_count=418 306 283 106 112 76 177 148 123 54 67 84 59 44
is_linear=0
shrinkage=0.03


Tree=51
num_leaves=16
num_cat=0
split_feature=12 7 0 12 7 13 12 2 12 13 7 9 9 2 12
split_gain=63.2541 20.7663 15.0381 8.31114 10.6511 6.21626 5.15597 4.81749 4.43064 3.18488 4.39971 2.75492 2.28442 1.97953 1.00456
threshold=48.803044270833333 4.5000000000000009 8.1500000000000004 34.314810937500006 2.5000000000000004 39.177670312500005 39.204880208333343 10.350000000000003 38.778780729166677 35.783886979166674 5.5000000000000009 6.5000000000000009 10.500000000000002 4.3500000000000005 41.278013541666674
decision_type=2 2 2 2 2 2 2 2 2 2 2 2 2 2 2
left_child=1 2 -1 -4 5 -5 -6 14 -3 -10 -11 -8 13 -2 -7
right_child=12 8 3 4 6 7 11 -9 9 10 -12 -13 -14 -15 -16
leaf_value=0.030267547062881199 0.081933460067986838 -0.096276385617944368 -0.051938632330801683 0.013188392305059971 -0.035906844599536497 0.0060263844842752328 -0.016267379310416316 -0.0065556168130786576 -0.015564368433424319 -0.019301304401966098 -0.031806956885870541 0.0052606318916334511 0.11887380943719332 0.05096064043287029 0.031742641227966571
leaf_weight=32 26 26 24 28 22 22 34 37 23 22 22 28 36 21 23
leaf_count=32 26 26 24 28 22 22 34 37 23 22 22 28 36 21 23
internal_value=0.00070406 -0.00498397 -0.000479808 -0.00330124 -0.00123648 0.00490463 -0.00927467 0.000730816 -0.0170784 -0.0129657 -0.0176871 -0.00483092 0.0241877 0.0197452 0.00731707
internal_weight=426 343 250 218 194 110 84 82 93 67 44 62 83 47 45
internal_count=426 343 250 218 194 110 84 82 93 67 44 62 83 47 45
is_linear=0
shrinkage=0.03


Tree=52
num_leaves=16
num_cat=0
split_feature=12 12 7 7 3 4 3 1 12 3 1 1 2 2 2
split_gain=50.4746 13.4074 10.7681 7.11718 6.00903 8.3896 5.03863 4.60564 3.9283 5.69937 3.78753 3.61455 3.9628 3.04995 2.92915
threshold=46.227031770833342 39.137066666666676 2.5000000000000004 3.5000000000000004 12.850000000000003 4.870000000000001 17.400000000000002 14.850000000000003 36.611562500000005 13.65 9.8500000000000032 16.550000000000004 12.750000000000002 12.250000000000002 10.65
decision_type=2 2 2 2 2 2 2 2 2 2 2 2 2 2 2
left_child=1 2 8 7 -2 10 11 -3 9 -1 -6 -5 -13 -4 -9
right_child=4 3 13 6 5 -7 -8 14 -10 -11 -12 12 -14 -15 -16
leaf_value=-0.0014221700837712702 0.077207448110396829 0.033054267055018016 -0.084825276611795036 0.0044541628530706846 0.06893063178514626 -0.0022094449907567792 -0.046618533473052608 -0.0013362528907464365 0.005072190183592582 -0.031414277049850413 0.067537823466986072 -0.013011638547277399 0.002728526536155016 -0.034967836076207418 0.01536918119312098
leaf_weight=30 38 30 22 20 20 26 21 31 24 31 23 21 20 33 28
leaf_count=30 38 30 22 20 20 26 21 31 24 31 23 21 20 33 28
internal_value=0.00100454 -0.0051109 -0.0119914 0.000526008 0.0187675 0.0134588 -0.00584653 0.00639731 -0.0052879 -0.00932897 0.0215777 -0.001473 -0.00656934 -0.022323 0.00152284
internal_weight=418 311 140 171 107 69 82 89 85 61 43 61 41 55 59
internal_count=418 311 140 171 107 69 82 89 85 61 43 61 41 55 59
is_linear=0
shrinkage=0.03


Tree=53
num_leaves=16
num_cat=0
split_feature=5 10 7 9 13 3 3 12 7 12 10 3 12 13 10
split_gain=48.5006 19.7501 11.8673 5.62108 8.45574 7.83112 4.99072 4.66727 6.95943 4.44099 3.83088 2.68491 3.98216 2.48136 1.39393
threshold=6.6500000000000004 307.50000000000006 4.5000000000000009 5.5000000000000009 38.760721875000009 9.8500000000000032 15.65 36.991154166666675 2.5000000000000004 48.803044270833333 183.50000000000003 17.850000000000005 39.008247395833344 36.611562500000005 49.500000000000007
decision_type=2 2 2 2 2 2 2 2 2 2 2 2 2 2 2
left_child=1 2 3 5 10 -1 -6 -7 -9 -2 -5 12 -4 -14 -11
right_child=9 -3 11 4 6 7 -8 8 -10 14 -12 -13 13 -15 -16
leaf_value=0.025154208193093337 0.020111316425226917 0.062152154505200979 -0.09085110984023867 0.00019767256066490545 0.0018444277349165361 -0.06242409617034006 -0.031276456016711265 0.0014124147286464961 -0.019381507874063928 0.065511688762976514 0.021086699564885337 -0.071864821656083572 -0.0039661422524635975 -0.027411728065308161 0.084915905976316167
leaf_weight=20 39 20 20 20 39 29 30 31 29 31 21 24 20 20 26
leaf_count=20 39 20 20 20 39 29 30 31 29 31 21 24 20 20 26
internal_value=0.000644238 -0.00492108 -0.00682943 -0.00314925 0.00163488 -0.00797434 -0.00477569 -0.0117845 -0.00698835 0.0193548 0.0124088 -0.016409 -0.0129784 -0.0074813 0.0246935
internal_weight=419 323 303 219 110 109 69 89 60 96 41 84 60 40 57
internal_count=419 323 303 219 110 109 69 89 60 96 41 84 60 40 57
is_linear=0
shrinkage=0.03


Tree=54
num_leaves=16
num_cat=0
split_feature=12 7 12 7 6 3 9 9 10 3 4 10 3 5 12
split_gain=49.9412 17.9196 11.3941 6.88619 5.6871 8.35086 5.66843 4.91743 6.46929 4.16852 3.3178 2.85009 2.50997 2.48662 1.15261
threshold=47.550009895833341 4.5000000000000009 34.314810937500006 1.5000000000000002 0.3499999999999997 18.650000000000002 6.5000000000000009 10.500000000000002 29.500000000000004 12.950000000000001 17.305000000000003 133.50000000000003 17.400000000000002 4.2500000000000009 39.008247395833344
decision_type=2 2 2 2 2 2 2 2 2 2 2 2 2 2 2
left_child=1 2 -1 9 5 10 14 8 -2 -4 13 -12 -11 -5 -3
right_child=7 6 3 4 -6 -7 -8 -9 -10 12 11 -13 -14 -15 -16
leaf_value=-0.05026820486517973 0.072119277425253397 -0.095844641832663197 0.024155400046852335 0.0017768914541710856 -0.020911136125221504 -0.033013054791388968 -0.01458810395642935 0.099035267559335019 0.02369300682458533 -0.014900337688781561 -0.012152787336753868 0.0017707988858766299 0.021098048816036368 0.030316717353931606 -0.016871560894138254
leaf_weight=26 24 21 28 26 21 21 35 34 34 22 20 23 20 21 35
leaf_count=26 24 21 28 26 21 21 35 34 34 22 20 23 20 21 35
internal_value=0.00138652 -0.00423065 0.000263043 0.00267194 -0.0013626 0.00135014 -0.0154775 0.0208469 0.0154905 0.010271 0.00532741 -0.000696056 0.00427553 0.010828 -0.0213904
internal_weight=411 319 228 202 132 111 91 92 58 70 90 43 42 47 56
internal_count=411 319 228 202 132 111 91 92 58 70 90 43 42 47 56
is_linear=0
shrinkage=0.03


Tree=55
num_leaves=17
num_cat=0
split_feature=1 7 12 12 7 3 9 12 3 4 1 1 3 1 9 1
split_gain=62.1574 10.5522 9.6139 9.05955 4.72687 7.88915 9.96402 4.2918 3.81875 5.28246 3.08207 3.63593 2.99889 4.87339 1.24769 0.937205
threshold=13.050000000000002 4.5000000000000009 48.803044270833333 34.621813020833336 2.5000000000000004 17.150000000000002 6.5000000000000009 41.278013541666674 17.850000000000005 18.395000000000007 22.450000000000003 17.250000000000004 13.15 10.350000000000003 10.500000000000002 9.8500000000000032
decision_type=2 2 2 2 2 2 2 2 2 2 2 2 2 2 2 2
left_child=2 3 12 -2 7 6 -6 10 9 -3 11 -5 -1 -14 15 -4
right_child=1 8 14 4 5 -7 -8 -9 -10 -11 -12 -13 13 -15 -16 -17
leaf_value=0.036439012910708828 -0.043122801179883936 -0.0057055542331983129 0.066715631424110383 -0.004782330510309833 -0.015404511463221304 -0.03461133981672837 0.0080017134372878107 0.033338761214846004 -0.067529394953489863 -0.040563138485170104 -0.0064241349936724383 0.016894333680021204 0.043306787410271635 -0.0060011122704654698 0.092155768667411347 0.058102725487816254
leaf_weight=21 30 25 25 22 36 21 24 27 20 34 31 20 20 20 32 20
leaf_count=21 30 25 25 22 36 21 24 27 20 34 31 20 20 20 32 20
internal_value=0.00168185 -0.00620476 0.0182476 -0.00270014 -0.000165654 -0.00554871 0 0.0041958 -0.0155499 -0.0116751 0.000410397 0.00570071 0.00932897 0.00448878 0.0252918 0.0219512
internal_weight=428 290 138 211 181 81 60 100 79 59 73 42 61 40 77 45
internal_count=428 290 138 211 181 81 60 100 79 59 73 42 61 40 77 45
is_linear=0
shrinkage=0.03


Tree=56
num_leaves=15
num_cat=0
split_feature=1 10 7 0 1 7 10 10 3 10 3 10 1 0
split_gain=45.3661 12.0308 9.33431 7.40306 7.55576 6.02072 5.78563 2.96064 2.84607 2.82237 2.79832 2.63142 2.37602 1.34359
threshold=11.550000000000002 263.50000000000006 4.5000000000000009 17.950000000000003 17.050000000000004 4.5000000000000009 89.500000000000014 43.500000000000007 12.750000000000002 183.50000000000003 17.150000000000002 307.50000000000006 22.450000000000003 23.400000000000002
decision_type=2 2 2 2 2 2 2 2 2 2 2 2 2 2
left_child=5 2 3 4 6 7 -2 -1 -6 13 12 -3 -4 -5
right_child=1 11 10 9 8 -7 -8 -9 -10 -11 -12 -13 -14 -15
leaf_value=0.053467147238311058 0.0097295083376602066 0.0045908250842208531 -0.0077464682959779551 -0.039022446665536774 0.027635200538922787 0.027776948597331381 -0.017678950845705969 0.05593785920318993 0.0073613998943710254 -4.891758034737847e-05 -0.05181922761355743 0.055194393681745238 -0.047097225977885272 -0.014757963763646203
leaf_weight=28 35 35 26 20 21 31 26 40 38 29 21 20 32 21
leaf_count=28 35 35 26 20 21 31 26 40 38 29 21 20 32 21
internal_value=0.00191444 -0.00351743 -0.00613155 -0.00252499 0.00199833 0.0196771 -0.00540098 0.0246696 0.00964467 -0.010271 -0.0147914 0.0092559 -0.0113597 -0.0153285
internal_weight=423 324 269 190 120 99 61 68 59 70 79 55 58 41
internal_count=423 324 269 190 120 99 61 68 59 70 79 55 58 41
is_linear=0
shrinkage=0.03


Tree=57
num_leaves=15
num_cat=0
split_feature=12 7 3 12 3 12 2 1 13 2 1 9 9 3
split_gain=58.3208 13.8456 8.03463 10.1084 7.22382 8.58555 6.15129 9.19232 5.92479 5.81374 3.30607 2.68234 3.29645 1.10486
threshold=47.550009895833341 3.5000000000000004 12.450000000000001 35.226740104166673 18.350000000000005 39.008247395833344 13.850000000000003 16.450000000000003 38.760721875000009 7.1500000000000012 17.650000000000002 10.500000000000002 1.5000000000000002 17.400000000000002
decision_type=2 2 2 2 2 2 2 2 2 2 2 2 2 2
left_child=1 2 10 -4 5 -3 7 -7 -5 -10 -1 12 -2 -11
right_child=11 4 3 8 -6 6 -8 -9 9 13 -12 -13 -14 -15
leaf_value=0.0063233219659950277 0.068896024581305185 -0.051218841755883628 -0.068470015857658453 0.0076407252998463805 -0.042473793946947322 0.015453760701246856 0.016410783584129333 -0.027706657094442162 0.015482303658399026 -0.013023983635861639 0.012422670857379572 0.10449679858845136 0.030539769778374574 -0.0059940486087041479
leaf_weight=26 31 37 21 21 29 22 21 29 20 31 39 37 26 33
leaf_count=26 31 37 21 21 29 22 21 29 20 31 39 37 26 33
internal_value=0.0027653 -0.00319052 0.00204082 -0.00237906 -0.0104272 -0.00687443 -0.000832178 -0.00645793 0.00142721 -0.00214031 0.0105991 0.0235919 0.0194396 -0.00655226
internal_weight=423 329 191 126 138 109 72 51 105 84 65 94 57 64
internal_count=423 329 191 126 138 109 72 51 105 84 65 94 57 64
is_linear=0
shrinkage=0.03


Tree=58
num_leaves=15
num_cat=0
split_feature=12 12 13 0 8 0 3 12 3 10 4 13 9 12
split_gain=51.9629 13.1649 8.02657 7.43877 6.93049 6.24587 5.92276 5.72674 4.6222 4.18985 4.00117 3.4926 3.28391 2.21945
threshold=47.550009895833341 39.008247395833344 35.845685416666676 18.050000000000004 1.0000000180025095e-35 8.1500000000000004 15.350000000000003 42.629516666666674 13.65 325.50000000000006 17.345000000000002 40.837408854166675 1.5000000000000002 43.319038020833339
decision_type=2 2 2 2 2 2 2 2 2 2 2 2 2 2
left_child=1 2 -1 11 5 -3 10 -8 -5 12 -7 -4 -2 -6
right_child=9 4 3 8 13 6 7 -9 -10 -11 -12 -13 -14 -15
leaf_value=-0.071877134659770192 0.071409294738481247 0.023931779802374108 0.010680493224802277 -0.0045754739078263636 -0.0092022594180601654 0.029113853106042951 0.0083621833427243077 -0.0081256926004654763 -0.042245085389028103 0.10348112622760872 -0.0011671094108814727 -0.024241270333594578 0.022897542039230317 -0.015372826947551913
leaf_weight=39 24 23 36 22 37 33 25 20 23 36 28 20 30 23
leaf_count=39 24 23 36 22 37 33 25 20 23 36 28 20 30 23
internal_value=0.00178955 -0.00373747 -0.0107066 -0.00623145 0.00142782 0.00534469 0.00226202 -0.0059867 -0.0152993 0.0219756 0.00834697 0.00106952 0.0166359 -0.00698835
internal_weight=419 329 140 101 189 129 106 45 45 90 61 56 54 60
internal_count=419 329 140 101 189 129 106 45 45 90 61 56 54 60
is_linear=0
shrinkage=0.03


Tree=59
num_leaves=16
num_cat=0
split_feature=1 3 1 7 3 13 4 10 9 7 4 7 3 3 3
split_gain=47.8238 13.5402 10.2372 8.35968 9.42184 9.11746 5.75208 5.67417 8.56439 4.77159 3.69425 3.3276 2.48722 2.27728 2.09563
threshold=12.350000000000003 18.050000000000004 15.550000000000002 5.5000000000000009 12.450000000000001 41.342965625000012 10.470000000000001 325.50000000000006 1.5000000000000002 2.5000000000000004 17.080000000000002 3.5000000000000004 19.450000000000003 11.050000000000002 14.850000000000003
decision_type=2 2 2 2 2 2 2 2 2 2 2 2 2 2 2
left_child=7 2 6 4 10 14 -2 8 -1 -3 -4 -10 -11 -12 -6
right_child=1 9 3 -5 5 -7 -8 -9 11 12 13 -13 -14 -15 -16
leaf_value=0.090928249430177313 0.058809017167528947 -0.011362011746393818 0.018439275129223311 -0.04541618104802559 -0.024843566286638887 -0.030065226572651014 5.1040698048652185e-05 0.088480038557371757 0.01602158277881326 -0.041219421931396737 -0.00095015479887813111 -0.00026683521276197551 -0.042526703616396232 0.0047508035016283756 0.011973141608951465
leaf_weight=28 20 34 28 31 29 26 21 27 36 20 28 23 25 20 28
leaf_count=28 20 34 28 31 29 26 21 27 36 20 28 23 25 20 28
internal_value=0.00127328 -0.00483715 -0.00116833 -0.0041031 -0.00131992 -0.00830325 0.0124088 0.0178791 0.0141217 -0.0155499 0.00630749 0.00761421 -0.0219512 0.0012474 -0.00157618
internal_weight=424 310 231 190 159 83 41 114 87 79 76 59 45 48 57
internal_count=424 310 231 190 159 83 41 114 87 79 76 59 45 48 57
is_linear=0
shrinkage=0.03


Tree=60
num_leaves=18
num_cat=0
split_feature=1 7 4 3 4 12 7 13 13 4 9 1 2 3 9 4 1
split_gain=40.0695 11.687 10.7435 8.02411 7.4515 7.41297 7.98041 5.97789 4.14994 4.10693 3.04579 2.60533 2.45981 2.20804 3.57793 1.5569 0.00992544
threshold=11.750000000000002 5.5000000000000009 4.870000000000001 13.350000000000003 17.080000000000002 50.297452083333347 3.5000000000000004 37.732937500000006 35.845685416666676 17.225000000000005 5.5000000000000009 15.550000000000002 8.1500000000000004 9.8500000000000032 5.5000000000000009 17.455000000000002 8.2500000000000018
decision_type=2 2 2 2 2 2 2 2 2 2 2 2 2 2 2 2 2
left_child=5 2 -2 4 12 6 -1 8 -5 11 -11 -9 -4 -6 -15 -3 -7
right_child=1 15 3 7 13 16 -8 9 -10 10 -12 -13 -14 14 -16 -17 -18
leaf_value=0.022601589813740511 0.061161951988053888 -0.011546519304992947 0.026442819738038706 -0.028002271560686864 -0.0056898541021308795 0.10442901861974448 -0.00025883015637909065 -0.012307163593045159 0.0079380204665471157 -0.015677895334380805 0.0039999026357107684 -0.046641542202284572 0.0014520232416645128 -0.013945463220855317 0.0012721797790718624 -0.081045212772799247 0.060806160701135599
leaf_weight=34 22 24 23 21 22 20 25 24 20 27 24 28 22 20 27 20 20
leaf_count=34 22 24 23 21 22 20 25 24 20 27 24 28 22 20 27 20 20
internal_value=0.00177263 -0.0033323 -0.00107105 -0.00278962 0.00315513 0.0184662 0.0116751 -0.0074948 0.00218978 -0.0113482 -0.00528376 -0.0172745 0.0126386 -0.00303907 0.000636943 -0.0176871 0.0284289
internal_weight=423 324 280 258 114 99 59 144 41 103 51 52 45 69 47 44 40
internal_count=423 324 280 258 114 99 59 144 41 103 51 52 45 69 47 44 40
is_linear=0
shrinkage=0.03


Tree=61
num_leaves=19
num_cat=0
split_feature=13 1 8 3 4 3 13 4 3 1 3 3 0 9 1 0 2 0
split_gain=42.8119 15.9264 12.1773 5.84062 5.26569 5.00375 8.20201 5.51651 4.48665 3.38508 2.6174 2.29234 3.70618 1.93393 1.32088 1.8362 0.382129 0.0220187
threshold=50.133709895833341 10.350000000000003 1.0000000180025095e-35 17.850000000000005 5.9050000000000011 12.450000000000001 39.177670312500005 17.560000000000006 15.850000000000003 7.4500000000000011 21.250000000000004 12.15 15.550000000000002 5.5000000000000009 23.200000000000006 14.050000000000002 8.4500000000000011 6.1500000000000012
decision_type=2 2 2 2 2 2 2 2 2 2 2 2 2 2 2 2 2 2
left_child=1 9 4 11 -3 7 8 16 -7 -1 17 -4 -13 -9 15 -8 -6 -2
right_child=10 2 3 -5 5 6 14 13 -10 -11 -12 12 -14 -15 -16 -17 -18 -19
leaf_value=0.015007084633281948 0.10985409133587933 0.036529104077103684 -0.00088415011445221127 -0.059974678119861159 0.0090676068661641549 -0.014622505378387274 -0.01205533641037718 -0.010579399072633392 0.0085145532605532988 0.047037168554611597 0.046775989966762521 -0.028693530331340963 -0.01280827031359223 0.00096299240054047879 -0.032307946526829029 -0.0060525268584434855 0.021203575736158695 0.06178709081387531
leaf_weight=21 20 22 20 26 20 24 39 21 25 21 21 21 23 24 20 24 20 25
leaf_count=21 20 22 20 26 20 24 39 21 25 21 21 21 23 24 20 24 20 25
internal_value=0.00226493 -0.00169766 -0.00391978 -0.0133185 -0.000376412 -0.00179641 -0.00545042 0.00387779 0.00427699 0.015677 0.0245083 -0.00842434 -0.0122449 -0.00332594 -0.0111913 -0.00903328 0.0119701 0.0286031
internal_weight=437 371 329 90 239 217 132 85 49 42 66 64 44 45 83 63 40 45
internal_count=437 371 329 90 239 217 132 85 49 42 66 64 44 45 83 63 40 45
is_linear=0
shrinkage=0.03


Tree=62
num_leaves=16
num_cat=0
split_feature=12 7 0 12 4 3 4 4 3 12 0 1 3 3 2
split_gain=46.5103 17.0236 10.1099 6.19793 5.51695 5.29812 3.8911 3.86749 3.15071 2.72067 2.41206 2.88142 2.28367 1.97372 1.87222
threshold=49.45857760416667 4.5000000000000009 7.7500000000000009 45.431327604166675 5.9050000000000011 12.450000000000001 17.975000000000005 16.770000000000003 15.850000000000003 50.435430208333337 20.100000000000005 19.950000000000003 11.050000000000002 19.650000000000002 10.350000000000003
decision_type=2 2 2 2 2 2 2 2 2 2 2 2 2 2 2
left_child=1 2 -1 10 -4 7 14 -6 -8 -2 11 -3 -9 -11 -7
right_child=9 3 4 -5 5 6 8 12 -10 13 -12 -13 -14 -15 -16
leaf_value=0.022079640835652368 0.019602556911708788 -0.022975903050885798 0.056307987898361271 -0.00084798435884593461 0.025377506939912777 -0.012903926060551107 -0.030583494814620592 -0.0054964815959699107 0.0056916123979384985 0.096803698254306944 -0.036787165847666684 -0.053573785490380596 0.0042376154811568862 0.053184064659869246 -0.027438830180844923
leaf_weight=31 21 34 21 22 29 32 31 36 31 35 24 22 20 20 30
leaf_count=31 21 34 21 22 29 32 31 36 31 35 24 22 20 20 30
internal_value=0.000751537 -0.00371798 0.000344696 -0.0141038 -0.00182529 -0.00329986 -0.00725222 0.00246769 -0.00193237 0.0220762 -0.0179775 -0.0213904 -0.00213904 0.0255898 -0.0125604
internal_weight=439 363 261 102 230 209 124 85 62 76 80 56 56 55 62
internal_count=439 363 261 102 230 209 124 85 62 76 80 56 56 55 62
is_linear=0
shrinkage=0.03


Tree=63
num_leaves=15
num_cat=0
split_feature=12 7 4 3 10 4 12 3 10 3 4 12 3 4
split_gain=39.4272 14.6185 11.4717 11.0373 6.28246 5.00958 6.88098 5.55201 3.96889 3.45556 3.82546 2.78848 4.87973 2.10114
threshold=49.071519270833335 3.5000000000000004 13.890000000000002 18.350000000000005 321.50000000000006 17.560000000000006 43.492853125000003 13.550000000000002 29.500000000000004 19.450000000000003 7.5050000000000008 40.795423437500013 12.450000000000001 23.290000000000003
decision_type=2 2 2 2 2 2 2 2 2 2 2 2 2 2
left_child=1 2 9 5 8 6 -3 -7 -2 10 -1 12 -4 -14
right_child=4 3 11 -5 -6 7 -8 -9 -10 -11 -12 -13 13 -15
leaf_value=0.017735074172832661 0.055701602021948342 0.0054554940294560695 0.0005359521789303301 -0.05358425886497379 0.089021151194169187 -0.037774090725192298 -0.00887728527109676 -0.0028671086329316608 0.013034740739127172 0.0061583685158287339 0.023929230737415635 0.00094532091706767574 -0.013262887167667613 -0.037276482616887492
leaf_weight=32 22 28 33 32 33 36 30 28 23 20 26 26 37 22
leaf_count=32 22 28 33 32 33 36 30 28 23 20 26 26 37 22
internal_value=0.000700771 -0.00359897 0.0018358 -0.0105127 0.0199744 -0.00638821 0 -0.0121685 0.0126386 0.0107554 0.0144578 -0.00406435 -0.00651466 -0.0116751
internal_weight=428 350 196 154 78 122 58 64 45 78 58 118 92 59
internal_count=428 350 196 154 78 122 58 64 45 78 58 118 92 59
is_linear=0
shrinkage=0.03


Tree=64
num_leaves=17
num_cat=0
split_feature=12 7 1 10 7 12 0 5 12 10 9 10 10 0 1 2
split_gain=45.7144 15.7732 9.79329 4.41277 7.90497 4.14196 3.95963 3.66966 4.80299 3.27192 3.2523 3.73945 3.16895 3.59426 1.74017 0.463631
threshold=49.45857760416667 4.5000000000000009 11.750000000000002 183.50000000000003 2.5000000000000004 38.573349479166673 15.750000000000002 3.9500000000000006 36.754909375000004 135.50000000000003 10.500000000000002 25.500000000000004 209.50000000000003 14.65 21.850000000000005 6.7500000000000009
decision_type=2 2 2 2 2 2 2 2 2 2 2 2 2 2 2 2
left_child=1 2 -1 4 7 -3 -6 8 -4 15 11 -2 -5 -14 -11 -7
right_child=10 5 3 12 6 9 -8 -9 -10 14 -12 -13 13 -15 -16 -17
leaf_value=0.022508063988731591 0.060119375376169404 -0.074767513147282041 -0.004279705900299682 0.016782332863988215 -0.0076825124913609951 -0.007378453163814633 -0.035568435183738353 -0.0075659048787217386 0.020526724536710644 0.0064445437912962686 0.088226810373825043 0.014293527832761369 0.031717178079876902 -0.0074931718181741758 -0.030099402874154392 -0.026877128771741355
leaf_weight=35 20 21 34 20 31 20 20 27 25 20 34 23 29 38 23 21
leaf_count=35 20 21 34 20 31 20 20 27 25 20 34 23 29 38 23 21
internal_value=0.00197234 -0.00247185 0.00150521 -0.000803213 -0.00415755 -0.012274 -0.0135029 0.00139373 0.00558376 -0.00927467 0.0229572 0.0174014 0.00447761 0.00134128 -0.00348028 -0.0153285
internal_weight=441 364 259 224 137 105 51 86 59 84 77 43 87 67 43 41
internal_count=441 364 259 224 137 105 51 86 59 84 77 43 87 67 43 41
is_linear=0
shrinkage=0.03


Tree=65
num_leaves=18
num_cat=0
split_feature=12 7 0 9 3 2 4 12 10 12 4 12 1 3 0 0 0
split_gain=46.0655 18.5568 9.18293 8.78549 7.49417 6.31202 4.02661 3.98216 3.91495 4.24565 4.63623 3.77987 2.92968 2.7799 1.07915 0.889319 0.420048
threshold=49.209369270833342 4.5000000000000009 8.1500000000000004 5.5000000000000009 12.450000000000001 15.550000000000002 17.395000000000003 36.754909375000004 169.50000000000003 39.237118750000008 18.200000000000006 45.153101562500005 11.050000000000002 15.350000000000003 15.950000000000001 12.050000000000002 2.4500000000000006
decision_type=2 2 2 2 2 2 2 2 2 2 2 2 2 2 2 2 2
left_child=1 2 -1 4 6 11 -4 -6 -5 10 -10 14 16 -11 -3 -9 -2
right_child=12 5 3 8 7 -7 -8 15 9 13 -12 -13 -14 -15 -16 -17 -18
leaf_value=0.021482192859575023 0.10630318276032963 -0.026070814908589028 0.040265420701144451 0.015650677038778583 -0.06572192400512776 0.0028305456851972365 -0.0076178873038336547 -0.01367942955641034 0.0025798474021449633 0.012575286128104537 -0.023586373227772982 -0.0052934595894307884 0.050588841021467344 0.0068323057926788517 -0.039159197753442711 -0.010802968601037933 0.051407002401895809
leaf_weight=30 20 35 21 23 20 21 20 20 25 26 24 20 24 21 20 20 33
leaf_count=30 20 35 21 23 20 21 20 20 25 26 24 20 24 21 20 20 33
internal_value=0.0027653 -0.00190696 0.00239904 0.000272603 -0.00623145 -0.0131113 0.00364964 -0.0129784 0.00579345 0.00312175 -0.00305499 -0.0171771 0.0237354 0.00955414 -0.0212341 -0.0074813 0.0276836
internal_weight=423 346 250 220 101 96 41 60 119 96 49 75 77 47 55 40 53
internal_count=423 346 250 220 101 96 41 60 119 96 49 75 77 47 55 40 53
is_linear=0
shrinkage=0.03


Tree=66
num_leaves=18
num_cat=0
split_feature=12 3 7 12 7 1 10 9 10 12 3 4 2 0 10 0 12
split_gain=44.7763 15.858 12.4055 8.89124 7.6663 6.8273 4.81221 4.46518 6.45325 3.60883 9.07488 5.36685 3.46864 2.77793 2.10264 1.58311 0.867848
threshold=47.550009895833341 18.450000000000003 2.5000000000000004 41.417138541666674 5.5000000000000009 29.550000000000004 131.50000000000003 10.500000000000002 20.500000000000004 42.925588020833338 10.15 10.905000000000003 14.750000000000002 14.950000000000001 111.50000000000001 6.6500000000000012 41.195136458333344
decision_type=2 2 2 2 2 2 2 2 2 2 2 2 2 2 2 2 2
left_child=1 3 -3 4 5 6 14 8 -2 -5 -11 -12 13 -8 -1 -10 -4
right_child=7 2 16 9 -6 -7 12 -9 15 10 11 -13 -14 -15 -16 -17 -18
leaf_value=0.00050560553646867841 0.05243616058606658 -0.008704613919012694 -0.050488643729259049 0.029208335331413336 -0.059693492570506872 -0.033485523358092593 0.0033781358614517029 0.084050068411259879 0.022618258562660962 0.048467460689082704 0.015563955486868862 -0.0096139450409701861 -0.0015086316618076268 0.0070089585992610635 -0.014566015714299069 0.011567951873397568 -0.03961392258128317
leaf_weight=21 20 36 20 31 23 27 20 32 20 20 27 20 22 29 23 20 22
leaf_count=21 20 36 20 31 23 27 20 32 20 20 27 20 22 29 23 20 22
internal_value=0.00228585 -0.00272647 -0.0145967 0.000798176 -0.00345245 -0.000844476 0.00234579 0.0208469 0.0159734 0.00795107 0.00402385 -0.00318471 0.007173 0.011609 -0.00544218 0.00897756 -0.0256532
internal_weight=433 341 78 263 165 142 115 92 60 98 67 47 71 49 44 40 42
internal_count=433 341 78 263 165 142 115 92 60 98 67 47 71 49 44 40 42
is_linear=0
shrinkage=0.03


Tree=67
num_leaves=15
num_cat=0
split_feature=12 7 12 9 10 12 4 0 10 2 13 0 12 7
split_gain=43.2511 8.79032 9.35701 6.38137 6.49445 5.9251 5.49048 9.06747 5.51696 5.40903 4.53683 4.07386 3.51206 2.23381
threshold=47.550009895833341 3.5000000000000004 34.314810937500006 10.500000000000002 25.500000000000004 38.573349479166673 16.770000000000003 14.450000000000001 173.50000000000003 10.350000000000003 35.845685416666676 11.65 44.946851562500008 4.5000000000000009
decision_type=2 2 2 2 2 2 2 2 2 2 2 2 2 2
left_child=1 2 -1 4 -2 -3 9 -8 -9 12 -7 -12 -4 -13
right_child=3 5 6 -5 -6 10 7 8 -10 -11 11 13 -14 -15
leaf_value=-0.051823309880024371 0.0553608745935373 -0.0638786860421304 0.036224227161539987 0.063081279613420804 0.010325644053711685 0.0036527727992878667 -0.013162395534566967 0.0078378511189283982 -0.0035185912792623239 -0.0015008417688424913 -0.0025103621447922107 -0.014686295446356254 0.0020456286534150793 -0.051613886227073351
leaf_weight=24 20 37 37 32 37 26 25 26 27 25 34 26 20 23
leaf_count=24 20 37 37 32 37 26 25 26 27 25 34 26 20 23
internal_value=0.000644238 -0.00436231 0 0.0191919 0.0131349 -0.00985626 0.00262336 -0.00307298 0.0039548 0.00803898 -0.00632447 -0.00974729 0.0131349 -0.0152749
internal_weight=419 330 184 89 57 146 160 78 53 82 109 83 57 49
internal_count=419 330 184 89 57 146 160 78 53 82 109 83 57 49
is_linear=0
shrinkage=0.03


Tree=68
num_leaves=17
num_cat=0
split_feature=10 5 7 7 10 13 13 2 7 0 4 4 0 13 0 0
split_gain=36.4294 19.2763 6.55183 6.00999 4.00843 3.55182 3.99291 2.8757 2.69797 2.65223 2.55869 4.18514 1.45992 1.4227 1.99861 0.0125776
threshold=317.50000000000006 6.6500000000000004 3.5000000000000004 4.5000000000000009 187.50000000000003 45.511538020833335 39.531710937500002 15.550000000000002 1.5000000000000002 5.0500000000000007 19.085000000000004 12.450000000000001 18.250000000000004 39.531710937500002 14.65 7.0000000000000009
decision_type=2 2 2 2 2 2 2 2 2 2 2 2 2 2 2 2
left_child=1 2 4 9 5 6 12 10 -8 -3 11 -4 -1 -6 -15 -2
right_child=15 3 7 -5 13 -7 8 -9 -10 -11 -12 -13 -14 14 -16 -17
leaf_value=0.0077569478415937705 0.046947899883318517 0.038526959998961982 -0.014486618905237876 0.00059921681329623056 0.012957987330680537 0.023392310574053284 -0.0030444653848291378 -0.0054484416401004761 -0.020037849634639428 0.027196378886741143 -0.027698660013162308 -0.0020558102558157288 -0.014829197404244175 0.017817739288383833 -0.0069220433011525266 0.056468763325318888
leaf_weight=24 20 21 37 24 20 23 24 32 27 30 33 28 20 20 21 21
leaf_count=24 20 21 37 24 20 23 24 32 27 30 33 28 20 20 21 21
internal_value=0.00162315 -0.00124967 -0.00456163 0.0123835 -0.000837521 -0.00406435 -0.00662461 -0.00968486 -0.0123288 0.0181996 -0.0122324 -0.00875576 0 0.00540098 0.00218978 0.0284672
internal_weight=425 384 309 75 179 118 95 130 51 51 98 65 44 61 41 41
internal_count=425 384 309 75 179 118 95 130 51 51 98 65 44 61 41 41
is_linear=0
shrinkage=0.03


Tree=69
num_leaves=16
num_cat=0
split_feature=12 3 7 12 3 4 12 2 3 12 12 3 3 3 12
split_gain=37.412 9.59736 8.06036 9.30201 8.24659 6.36438 4.57193 9 3.87194 3.84638 3.56447 2.40753 1.77155 1.57616 0.891189
threshold=49.209369270833342 11.15 2.5000000000000004 34.904709375000003 18.250000000000004 14.380000000000001 38.778780729166677 9.2500000000000018 9.9500000000000011 41.417138541666674 50.435430208333337 17.700000000000006 20.150000000000002 14.15 41.678410937500011
decision_type=2 2 2 2 2 2 2 2 2 2 2 2 2 2 2
left_child=1 5 3 -3 6 -1 -4 13 -7 11 -2 -5 -12 -8 -6
right_child=10 2 4 9 14 8 7 -9 -10 -11 12 -13 -14 -15 -16
leaf_value=0.037253793781948229 0.011902496677978221 -0.04843186930448979 -0.041645454433829131 -0.0067143820021179574 -0.03263658504899325 -0.0049389658832003037 -0.006825634656780117 0.014566745196575148 0.0022350320076042606 0.019574156453063055 0.076053498934572583 0.0082867129564248646 0.05277882055628922 -0.024009632440407564 -0.030366532755192705
leaf_weight=33 25 21 34 33 20 22 20 32 21 33 27 25 20 20 21
leaf_count=33 25 21 34 33 20 22 20 32 21 33 27 25 20 20 21
internal_value=0.00036846 -0.0038496 -0.00659977 -0.000535236 -0.0112169 0.00551905 -0.00678605 -0.00249653 -0.00208817 0.00362239 0.0199723 -0.0010327 0.0248408 -0.0119701 -0.0226277
internal_weight=407 335 259 112 147 76 106 72 43 91 72 58 47 40 41
internal_count=407 335 259 112 147 76 106 72 43 91 72 58 47 40 41
is_linear=0
shrinkage=0.03


Tree=70
num_leaves=15
num_cat=0
split_feature=1 4 7 9 2 10 0 5 2 9 10 4 4 5
split_gain=29.3382 10.8297 6.8656 4.62793 7.47583 6.58013 4.18813 6.33216 3.59426 7.96493 7.2527 1.91841 1.47854 1.22019
threshold=10.850000000000003 4.870000000000001 2.5000000000000004 6.5000000000000009 7.0500000000000007 225.50000000000003 5.0500000000000007 12.250000000000002 15.15 5.5000000000000009 105.50000000000001 20.565000000000005 25.325000000000006 1.7500000000000002
decision_type=2 2 2 2 2 2 2 2 2 2 2 2 2 2
left_child=6 -2 8 4 -4 -5 7 -1 9 10 -3 13 -13 -6
